{"weights": [[[-0.16582429185880335, 0.2157466589623221, 0.08967253503949316, -0.06859950378167155, 0.18799975293004761, 0.00159458574635911, 0.04184875067112397, 0.13774154420913523, -0.40404444001350404, 0.14829351105303273, -0.0007399090815193511, 0.06020590075212771, 0.09806266025252997, 0.03030414015728216, -0.06511468380472683, 0.30107245130572013, -0.13335083057688057, -0.07607853715104193, -0.18063275656858088, -0.29618499483954946, 0.056754247685353844, -0.1877299582211696, -0.21467427413336782, -0.015167626672299272, -0.18479008903556432, -0.11023709762126252, -0.17696632259708991, -0.20201570308316982, -0.13858169566005546, -0.2315192275108205, 0.13257304422780147, 0.28395840639140096, -0.06130722862740473, 0.21016238250822267, -0.05808599185121082, 0.19979933063438976, 0.22059066556065754, 0.09152571627274346, 0.04538300131046691, -0.166959122001199, -0.15320459418839746, -0.20250006912433144, -0.08408264017069669, 0.5823648747181291, 0.06950743699397709, -0.0877754767826374, -0.2472230784246749, -0.4869043304673498, 0.009463871473370565, -0.060908648091308575, -0.36373279166249073, -0.22069432109594514, -0.07745776985390466, -0.1390429081271025, -0.05726805188900248, 0.3896684368820145, 0.008022021483139167, 0.12189408030383628, -0.25340308623284974, -0.3022856670117609, 0.1578262252554953, -0.2611222878169724, -0.017000479062368862, -0.0645687073079863, 0.23625840145412644, 0.39566313121334284, 0.13304477019046268, -0.2898555432652475, 0.8263557715181079, 0.8445136696140765, 0.30269097373425313, -0.040641188876144346, 0.11001167895953914, 0.03600073713419811, -0.18398940029497976, -0.4575576823395797, -0.20423553090108185, -0.4674786019605796, -0.06237512938219592, -0.22336358887090813, 0.011467028052228124, 0.28724579144392626, 0.09870030465589796, -0.23174953909168963, 0.10788898435247611, 0.22345788498551206, -0.004248776848396965, 0.1446451381198169, -0.5439201058919511, 0.28253510834362494, 0.30105194732143714, 0.1771454049325823, -0.0605902094758866, 0.7540635610402701, 0.9216127342746933, 0.15833610173202373, 0.7397666716171998, 0.9542676594792182, 0.2382892567184641, -0.40338537497284915, 0.19327148590643, 0.11813631769522324, -1.117134602100883, -0.5281616272543088, -0.8829867449271862, -0.5206126483505248, -0.5011952544675741, -0.424367056834563, -0.2660791377436153, 0.17360855316798188, -0.16623929232074033, 0.3210658173365666, -0.03108836718516776, -0.13547903021901272, 0.017970504221828408, 0.07080280416377777, -0.18665734974553758, -0.8531469251794906, -0.18962700901771679, 0.06079871614793634, -0.20339168774056834, 1.4004638889332826, 0.9083755307955687, -0.6840380930651327, 0.38883000650957467, 1.4520871331439102, -0.14270422284585652, 0.399395479011851, 1.0782141072849816, -0.5265861796418543, 0.15015421524096442, 0.06673125058131021, -1.9228809155149422, -1.1173346880248525, -1.189319156807531, -0.7067053675083811, -0.5566774686103234, 0.10414520306050694, 0.13099873619251215, -0.1781265377764927, -0.28760654191085666, -0.21933348349518536, -0.10753657088246092, -0.002678597517814286, -0.4221323195143977, -0.8564271736967508, -0.20312345706599355, -0.3733398354801967, -0.6795516567721037, -0.5153027747210698, -0.9816093825952324, -0.03624317590540951, 1.2341641131529593, -0.29414108501072067, 0.11473239025832005, 1.5554471069159714, 1.2234137395428717, -1.059546262136279, 1.3671986070574704, -0.22507774629460145, -0.9327493073537765, -0.43754780635793034, -0.8840535213546442, -0.7719816747088039, -0.9748371720646558, -0.31460358629888885, 0.1531867906631947, -0.11932970134537334, -0.10125491106767928, -0.06502652609035521, 0.06992786576978383, -0.5800718677481483, -0.37584451474634706, -1.2198112618359358, -0.5695718934392588, 0.2730486749707404, 0.542153155479977, 0.26730270089431984, 0.9486037503660579, 0.29487270546359307, 1.3837609114181675, 0.3293187392894982, -0.25503722575408944, -0.41576287995700495, 0.41312574319699036, -1.0285147610090668, 1.3336546870524826, -0.6510316140031571, 0.2354436839551231, -0.2592159403223057, -1.81323151603302, -1.0307052764460063, -0.9572758806825308, -0.26486073671708665, 0.05135784810645293, -0.062024629238940476, 0.05137545569420066, -0.01815053031314655, -0.24951756438419367, -0.5375902844052656, -1.3451393786833474, -1.8765127980970409, -2.4262154651519228, -0.49052384500879737, 1.05830888321405, -0.12647498027319926, 0.2694694935422157, 1.262425536066877, 0.5784330058476521, 1.6151618357110307, 1.2062166559162468, -1.2201263912536566, 0.7056088483518334, -0.6973647412870084, -0.37396287926045074, 0.49311479508424483, -0.9319291118801646, -0.3096404321748238, -0.428251957570996, -0.9978747905414358, -0.8884304881465559, -0.48836062793799384, -0.5262313144687168, -0.04240830120777167, -0.09681693573622299, -0.13975645405432308, -0.023705607558538972, -0.98476154868411, -0.7935116175911056, -1.3044706884408137, -0.3425328456531506, -1.0845586419905247, -1.1984673867340765, -0.5013437749760075, -0.19326083594693821, 0.4319958238100183, 0.7404125038204723, 0.8463057605572581, 0.1864186633592917, -0.6243977798951141, 0.12328111179604472, 0.65214971494556, -1.637590560799036, 0.8730895092206491, 0.4548820386946436, 0.022643313080740152, 0.30031201544203967, -0.6547284741974474, -1.7859814401819891, -0.6865499637263707, 0.020605025930762674, -0.07303438420962043, 0.11560497927223526, 0.36091277359948204, -0.39143221314269305, -0.6796233821250273, -1.1362978798025207, -0.5430462337613006, -0.6365145739093483, 0.24864112543696076, -1.1588489460543365, 0.23236363754808323, -0.6209750888130511, -0.5137392238196252, 0.3921302388027889, -0.4094411152874172, 2.3338858853017297, 0.3234175110319423, -0.1612652788722835, -0.7400099065039919, 0.28922727787459696, -0.16127477378195107, -0.07792374826732869, -0.22719742246729288, -0.3258066641111047, -1.8664447945197107, -1.8238677779508787, -1.1705351078720128, 0.15514804647724495, -0.34628316819248156, 0.11250022246890641, 0.03630049450656174, 0.07179889535845466, -0.6883684594554531, -0.8399600158086424, -0.4278912196766042, -0.3520818825153083, -0.3119644187070095, 0.9481003258972269, 0.892417583202006, 0.7780541619073836, 0.519041965399204, 0.32762248683942874, -0.35377542615861873, 3.260258977933307, 4.182314552311304, 0.3447938369728756, -0.8187474421240258, 0.15976357275511566, -0.4780917310379097, 0.17075137399361784, -0.199477154066967, -2.759210943630686, -2.744911795286832, -1.7651750114762723, -0.00879762149918377, 0.5253173999239165, -0.19580347279337154, -0.41595973302491074, 0.09003655050310089, -0.37062671247702056, -0.7855736850284065, -0.5854882382179651, -0.2964373379889562, 0.3517569942132314, -1.4383752261339382, -0.37124362092686053, -0.6895071454534726, -0.43026688978520405, 0.054097966607789365, -0.4697245665765424, -1.8768319670326554, 1.8309081819764845, 2.1384856271798136, 1.6551150002702228, -1.5834483373958494, -0.7128779421131642, -0.07019965688178866, -0.3308519582164417, -2.372353054433553, -3.9852123561492294, -2.6296157872923898, -1.1238810676912203, -0.39591203424948246, 0.46817166696146756, 0.11916420283234441, -0.002324161946880306, -0.05010657628870916, -0.12431889210052201, 0.1887541304836215, 0.11526967836074163, 0.0011691824881306858, -0.9011753660069909, -1.8275625967806157, -0.8442138220112431, -1.5673899874357144, -1.5880753728178325, -0.432301615004271, -1.5963015729096581, -1.4867758867951015, -0.7457922219721684, 1.828548220656586, 1.507678097375007, -0.002551948410908137, -0.7043828631966723, -1.3989184631210227, -1.7737426501300388, -3.0112459891537644, -3.1048707570335146, -1.7698511189591728, 0.09220321443598359, 0.2192237420344689, 0.7928584954088378, 0.05809375205674332, 0.11520564524851873, -0.007570295076568042, 0.10286843594576965, 0.03644119729238061, 0.17688737980478678, 0.10879154304216705, -1.7816886800739975, -1.9391010636786385, -1.5160722140321663, -2.193543169736489, -0.9377194234939208, 0.06059834063610298, -0.3830035744247806, -1.0605354670390728, 0.5092047312637495, 0.9734707990114703, 1.2820115206170344, -0.6454632751774018, -0.4163151325794672, -2.8190182900361065, -4.222206653464602, -2.2542436910042927, -1.9852118099912772, -0.6852589539580545, 0.40647488313554153, 0.7193304803532256, 0.13561411461681847, 0.22517619622606252, 0.14899038874796433, -0.07221677572996323, 0.27532870397322534, 0.20534258933939284, -0.23688155605505984, -0.4916427941923444, -1.8930173023762038, -1.9992078608877764, -0.17302195817985133, -0.4701426639635503, -0.6209919320257038, -0.913825513411178, -0.022846097546228968, -1.3568420340863594, -0.38497695362303325, 0.5052030663063359, 1.6026436738066636, -1.730655689582934, -1.160257684489232, -3.719770975044115, -3.3757385949415717, -2.585206720318834, -0.7432281554097291, -0.16247123819661258, 0.19951904415634492, 0.012484912974127993, 0.8047455672463028, -0.29821946562533047, 0.6284975792016454, 0.2270476749496953, -0.09229910289285012, 0.3071569436667419, 0.06220717901800827, -0.14673109085007094, -1.2440949568059663, -1.1653032149495932, 0.28223363756260295, 0.19011663965203346, -0.20602393653032722, 0.5291455343521697, 0.8995178159635111, 1.3776152330102784, 1.469886926969399, 2.9776671914772743, 2.0643557227096117, -2.3571490532020496, -5.819070350516265, -4.8312257549041675, -2.3963754076607815, -0.07247885243961841, -0.5133449613638741, -1.0795384997737913, 0.750917194009051, 1.5212843521415838, 1.3040888130882076, -0.0602388028620106, -0.17549163792816597, 0.05254233706740263, -0.18768628139992372, -0.0089287178123727, -0.02610028961912707, 0.35289514691480656, 1.1775519720483427, 1.4030956712406903, 0.2378956907184631, 0.14523889905699292, 1.447614879111684, 0.7138073104216095, -0.9577548409149735, 0.11956200581555415, 1.2064775592562154, -0.1707461452166418, -0.27733196361070683, -5.561392355604156, -3.237892708189319, -2.0406128770595466, -0.36005147882275745, 1.9604263551965293, 1.1058547478795866, -0.41895000878535366, 0.7391791990895821, 1.959459751754322, 0.6609564127455277, 0.21020150199727203, -0.04948717410567838, -0.0929967411818241, 0.1666747280568659, 0.4791619706233767, 0.01676460777859005, 0.16112672276903564, -0.4224046495298484, -0.3748642805632504, 0.0904440324605437, 1.371780298785575, 1.0864668021313888, 2.4323871274148363, 1.0373429476794551, 1.678200687166787, 1.7587318905130054, -1.339515342605299, -3.88278510901347, -5.191513458519737, -0.7774992279713628, 0.3775289654364839, 0.47931756149992255, 1.2897226859101774, 1.1060421557808346, -0.10336671588990318, 0.7792004561881504, 2.3598127620231573, 0.681567699840468, -0.19660383213361557, 0.08422901377071497, -0.06008902852680942, -0.3949067405061814, -0.05270204356467982, 0.7295924133930247, -0.23894132825059589, 0.017241255987466182, 1.0016405880237456, 0.7192495477840201, 1.1155973194086175, 0.6221925258954097, 0.879925309805054, 2.2024000697010617, 2.5411494271038024, -0.8171646292878649, -4.808219092879136, -1.2576302255519745, -0.9069331549395749, 0.4924092614376455, 1.0495318350337457, 0.5728628334377173, 0.1598200153787563, 1.442137300005711, 1.0639795511003538, 2.2546408524016974, 1.3823664257573294, -0.07921629968845509, 0.3432615767587342, -0.012682965911490483, 0.21451521759025244, -0.21511753270259176, -0.5429814192367243, 0.31610210013328943, -2.3054384796209653, 0.07115413552162908, 1.305965793168946, 0.8585962719500414, 0.4948464859987768, 1.394164769155716, -0.7606688520987465, 0.29466622366261913, 2.1042740417669874, -1.1500564011436216, -3.294502702353513, -0.10454757562385208, -1.3750630678747127, -0.835914666643989, -0.3834608744200502, 1.2495640283804899, 0.30881437948145074, 0.2120969685129514, 1.245184604543123, 2.2011022554243747, 1.3444556274095019, 0.518367227073279, 0.13355768800225304, -0.4601803718316094, -0.022020706889955013, -0.27290874451223485, 0.023838715945847074, 0.27581011448658355, -0.7442385847032451, 0.1595453455803856, 1.2271444913255767, -0.13314212678694515, 0.571099915715779, -0.24618744998031836, 1.5829990003761247, 1.3022775086593155, -0.5861699107578343, -1.631925945888486, -1.0795301391635985, 0.24048919659893495, -1.2427019224062479, -0.6260560231095275, -0.08256672049743655, 0.4537502582958688, -0.5633510992629498, 0.18291898971457038, 0.8088794612255419, 0.8356994215062873, 0.7681060158286088, -0.14831453077378945, 0.27371760909933, 0.14404520309328261, 0.21596954303485982, -0.6135543479112268, -0.009513064162854353, -0.033073757739697486, -0.09801798995940604, 0.0598818382617892, 0.4244109954855809, 0.46985334637909126, 1.6642606538029305, 0.2582398179097119, 0.33396558464239634, 0.09136924872066272, -1.3564898130650922, -0.22268076065746772, -0.7337020857611377, -2.233528043247936, -1.5970942924939442, 0.005566085021202337, 0.8994942630628671, -0.14231983122855754, -0.21295836355887676, 1.8344142934248941, 1.801715524245342, 0.687308050905903, 0.47865856367713994, -0.18145049401589358, -0.017513922006056403, -0.45911706913701084, 0.2560719303170394, -0.6194944455041634, 0.08345166460003584, 0.3357970917200103, 0.6505771370956098, 0.4086957459279323, -0.10137164266560686, 1.4436945658740938, 0.8872512793849082, -0.57131571235371, -0.6343242636957571, -1.1365214399462067, -0.9402553811968032, 1.3737698069456339, -1.7600520135674986, -0.9842807170133432, -0.5875142301725129, 0.3333715162660117, 0.982458912513431, 1.7399139845897351, 1.5672985134029265, 0.8121136283074214, 0.2299953661872005, 0.432633778849611, 0.053746076517989086, 0.10153160810031645, -0.09607909080476922, -0.11699808456910618, -0.3360348015832052, 0.03398772529660131, -1.2866981662391022, -1.1994113550179801, -0.9563695695125055, -0.07313294063075541, -0.9419119107381375, -0.663187972769918, -0.10320896818530116, -1.2773863549430753, 0.46525593368567036, 0.8539886856381932, -1.6219405409404342, -1.0774907485495577, -0.6525294665024057, 0.41907905074037843, -1.3596295894570345, -1.2561049014978658, -1.4356752808090192, -0.13469070681800108, 0.5705783220332915, 1.1326769765249065, 0.6914416414428601, -0.056586745881544595, -0.009431004326820334, 0.05099270402549834, -0.19326710716279324, 0.12476882992859488, 0.07946299239689472, -0.01857367649214209, -1.1384506249833715, -1.3747000330697985, -0.8124826715919305, -1.0515673575828113, -0.5484849483874316, -0.5622781178465615, -3.685971119482092, -1.6917807401991802, -0.46532049883570353, -0.5990286933276693, -0.9852170401629134, -0.6293385159438074, -1.2081179969198712, -2.0418103808824375, -1.5656677261920615, -0.7068552161213622, 0.12454310441682706, 0.45363746863824167, 0.9763227417801339, 0.5424576457154783, -0.002523391725429914, 0.6877506777043719, 0.002662828344360733, 0.22447359560247254, 0.11278760776937127, -0.3817550366092125, -0.4791168380358994, 0.43694334393282197, 0.027451061481821682, 0.3706419773091063, 0.19992604306169548, -0.6038986516112512, 0.13613250615795744, 0.4534703330695624, -1.43940738368657, -0.918071732487241, -0.8645193544807604, -0.648722077648514, -0.9097394724291947, -1.5188336823078472, -2.230801327994548, -1.8396269309135582, -1.2507528554845366, -1.5152562805347425, -1.2992175743977514, -0.19153239049207427, -0.017357314558459118, 0.022697401666466274, 0.04488150603256967, 0.15944158455166876, 0.07412377872466146, 0.060534864648610395, -0.06710629832736129, -0.1161985265198114, -0.17576500412746618, -0.1615886073149344, -0.11323776737882155, -0.005913150294479553, 0.0980970956731989, 0.2108744180407853, 0.1750794316690605, -0.3386118405300946, -0.1944332628579581, -0.23063552402454116, -0.469008976275525, -0.2059252566975944, -0.44009805727136087, -0.1931715885764485, -0.3927805501275835, -0.4076883856462555, -1.1734487308954376, -0.4383855953703396, -0.30996582128510697, -0.4337698650575814, -0.2952832603772013, 0.038214660492935974, -0.004495758227495168, -0.4282265250981286, -0.04048665153200948, -0.030087540257080252, -0.18899141790044685, 0.1803464207792349, 0.08105389467088767, 0.051302862715815425, 0.0194089780192868, -0.40848449499423756, -0.3880446686504904, -0.12265753117318666, 0.2665606075942155, 0.15422505769427142, -0.08355184669846431, 0.09375123473584569, 0.3775554642387131, -0.1574176455355539, 0.02211460451713185, 0.47206551617965176, 0.5768520501762457, -0.10477848357262827, -0.2044635253851229, 0.029851279115410537, -0.07933575041784752, 0.05761177669007419, 0.24132112443176235, 0.014015333235636081, 0.0968930152046954, -0.34325194372485035, -0.03305172337593258, 0.1849277356688804, 0.035785594681161395], [-0.2298387488622715, -0.07634240997098236, 0.3058939701180393, -0.28201091256857475, 0.12453131440250195, 0.22398680570483448, -0.1318919289826638, -0.16404234253549357, -0.1681697733578123, 0.01038786062001809, 0.21955614176684923, 0.011999329378698752, 0.2729092448479027, -0.20744928835398535, -0.049269544933107, 0.09886806175553223, -0.18117475847127135, -0.09549100091666587, 0.03191669404106912, -0.09876860231351776, -0.21651439451176918, -0.12422209312046406, -0.2652798700854772, 0.2120160943406532, -0.13222934347167858, 0.13753313609651166, -0.3871941148061994, -0.12172966715107728, -0.0523771180744641, -0.18002016881772426, 0.004657974686528078, 0.04128094038833196, 0.11411855431956454, 0.3957094863814539, 0.08933035045922269, -0.045874217998501804, 0.05159160904425973, 0.1648106408999682, -0.7030436300851909, -0.14663391002425444, 0.2589183754314933, 0.07770500756753856, 0.3085250652625432, 0.4658220143811517, -0.3902845824031332, 0.025164228059668826, -0.05182651763633692, 0.1906834439805962, 0.04588934531465467, 0.06910978199505281, -0.5642560623992358, -0.3963070011844859, 0.0264629032259946, -0.3364652666144973, -0.007359680333751245, -0.023271202078404413, -0.11308946226275332, -0.04680171747880947, 0.32622758718508676, -0.24842184757867694, 0.04415963727754921, 0.17716585513165772, -0.016813535009098844, 0.16834637371821348, 0.1784143947967564, -0.1686075158970066, -0.4412339403676904, -0.7356178581404856, -0.41958004798703097, -0.6466142596411517, -0.5671234357081696, -1.0244051896704722, -0.547547231290954, -0.9135794961640443, -0.35513040069686175, -0.45263546555423867, -0.5158563757784449, -0.11343367922704384, -0.265884262286897, -0.006160326272925568, -0.07609998588193302, 0.0638294998641956, -0.07199553117172722, -0.10095982144010596, -0.06498641229486532, 0.19344488274358945, -0.23946285391427688, 0.148192777399952, -0.19483318182650977, -0.19103527471907578, -0.2595349875118005, 0.0550632495310802, 0.039461914196078585, -0.2569705296915723, -1.029201656480928, -0.889712232492862, -0.8435688726229987, -0.9425653802818684, -1.8975849153938664, -1.8228895556713545, -1.0178542817555425, -1.4945476905168646, -0.9666503658498864, -0.7952775216453621, -0.32595072153549265, -0.3579848274706085, -0.7719019542738832, -0.317076822694209, -0.05465036544230155, 0.3378865568986529, 0.2744596220553075, 0.07395833610385069, -0.6790490554877066, 0.10389855831597343, -0.32417697574316984, -0.07601414078458091, -0.0611712246946049, 0.13001397665631703, -0.11973146862368209, -0.22222957424064585, -0.16046993156929695, -0.9006140901366022, -1.206475965419215, -1.8323451356647185, -2.382394595348422, -1.9172671696385726, -2.045323027137429, -2.518324032963088, -3.036645701002677, -1.578361702598707, -0.5108549151027799, -0.8436384141973288, -0.8550243669274117, -0.9528827781814516, -1.5472391380761188, -0.07425516912518548, 0.21358043938106694, 0.6939545145427347, 0.08330860300179482, 0.01805129261399826, 0.3438193110848818, -0.01860138360483988, 0.0022411685181272702, -0.07777890995537103, -0.4067928483544452, -0.04824063594025429, -0.6975908758753462, -0.9078867509102969, -1.0798473662695993, -1.6751907449671404, -1.031342498369694, 0.21001832038598153, -1.433970566214217, 0.5664763915280717, 0.7584735762327022, -0.010636561171057065, -1.2403000049590656, -1.1121343445733547, -0.9018128772767692, -1.8260811324431037, -0.7614902863150806, 1.2732351933469381, 0.31220274392571984, -0.4416906827059034, -0.3675633532444091, 0.3469692063657663, -0.13679780880402997, 0.0537322282124515, -0.08692119005892182, 0.009922969202133205, -0.1428600362372635, 0.13761036313227734, -0.09902683183762173, -0.8871839618302008, -1.3863251847784852, -1.2686694192009744, -0.20577285853746616, -0.3850429896066744, 0.9816656392060353, 2.117106436120401, -0.062603155684398, 1.3845259294401029, 1.640645111573511, 0.4244147103409631, -0.13124131293843397, -0.7488441344072782, 0.2218694583052957, -0.18198684659746978, 1.0520398793478152, 1.7693220293737872, 0.17598406529627944, -1.2041404209203648, -0.46372124495180506, 0.31687427608267527, -0.16337628077073116, 0.18317110360266162, 0.28578848448328126, 0.2301972712936705, 0.14892368246571336, -0.4389174251711793, -0.5529146632603633, -1.3477742786913842, -1.6451119970764296, -1.2436611957514674, -0.02432063547912769, -0.0678348081738708, 1.546955773212149, 1.9288659464155893, 0.6784557466477019, 1.375423913176869, 0.7322664598486222, 0.2900887506081196, -0.35705522909596, 1.67623578622076, 0.7725991591260729, -0.2929783125962994, 0.7605174193482719, 0.7257602040457437, -0.23009442231196137, -0.9595818752405889, -0.5460502967034186, 0.8361185538799017, -0.018881727265544396, -0.3852130826503343, 0.04585885323939106, -0.34935944222807713, 0.39725175730072837, -0.3435925583760862, -0.6839714490523012, -0.7196806969923744, -0.8981720637375774, 0.18097968763883707, -1.0054616530074996, -1.4138933078181402, 1.0483958542896232, -1.6837395749273927, -0.8625102566991046, -0.09415875679359684, 0.338541591156654, 1.4886903845029842, 0.21943672980104548, 1.1844327784369117, 1.4330021456740383, -0.055495721117687025, 0.4609705039525962, -1.3735124582583191, -0.2524451857192189, 0.553079931029649, 0.5116200059408306, 0.24081898848015632, -0.3272587146329981, 0.04825758744510027, 0.18398792338007797, -0.372334513977556, 0.21876893753861343, 0.12331433628410002, -0.7154627807829143, -0.18873740991190294, -0.007849302986856302, 0.593479313488504, -1.1931208387098209, 0.17732763589593842, 2.4883902721868454, 0.9403014910325574, -0.9462585715284008, -1.8142699233654027, 0.9831550753266486, 2.632464340490727, 0.800080033304453, 0.9373172234287679, 0.9190604158555812, 0.8714180595424689, 0.05913204126280239, -0.5428863690650001, -1.685088016558855, 0.5118578927993586, 1.4991857854479174, 0.7978220399328857, 0.05547131678643873, 0.17039508176868084, 0.01181821980846624, 0.2984237041288381, -0.13546294783300003, -0.11026273103404509, -1.0833056299176445, -1.0698539404575023, 0.5602537058898237, 0.28246313393580935, 0.03101337064547823, 0.24686908884757283, 1.0986418708041477, 3.682067788071126, 0.553744395648992, -3.121536571430869, 0.3086936774240017, -0.6476559858984848, 0.282184269089204, -0.01785784024494338, 0.4148337376758685, 0.8815467089145471, -0.007612427722974023, -0.7086042149629923, -0.15946551075500506, 1.937446071950647, 1.8177479185088536, 0.9373736061965947, 0.07966593510635588, 0.05856900357869845, 0.09826644750494051, -0.2635589924509463, -0.5228613468844852, -0.3589738763418552, -1.6724657070041573, -0.2989954187326326, 1.3831512730897877, 0.7792820566627771, 1.4259208649466841, -0.36878401751710593, 1.652131873610535, 3.26361025180854, -0.995239213311569, -1.7700660576557161, -1.6706427439084388, 1.4009687064877059, 0.6495510435818416, 0.49459335390477394, 0.1406316661061108, -1.3955425137246884, 0.35351572618742677, -0.05375270592350751, 1.442910430293847, 2.8550849213171148, 0.9602352836920486, 0.39538303060482444, 0.05660249958315945, 0.2785844236128135, 0.041009460041999624, 0.23271172677526955, -0.12362224486774674, -0.7904696102713294, -0.6057339055028694, 0.0436479009297278, 1.047029467536306, -0.16702192972303762, 0.28612997743956964, 0.21580400643140726, 1.5012447579129964, 1.1692992552561872, -1.1181517589974117, -0.8241661783942198, -1.7128813727399441, -1.5152370619958575, -0.2516424964603974, -0.5783041100193106, -0.4056864491246352, 0.7181020531441836, 0.4348282220385736, 0.35681471998116415, 0.883388715906915, 1.6507373063149382, 0.22725788157828805, -0.06553798367028235, 0.30049972874491687, 0.4351447661651258, 0.10758158177323018, -0.036843299949806355, -0.29045198547305245, -0.48731313268529186, 0.11853659801990542, 0.6508969870097505, -0.39373963809822293, 0.5730393144065017, 0.9149338742227111, 2.6086400600282236, 2.081816382747811, 0.3157866387018312, 1.0373579331460414, -0.45135795140867807, -1.6026373839423111, -2.518399691609507, -0.3704998397775612, 0.47100523725821375, -0.5730517118705601, 1.865393282052676, -0.4474214808968069, 0.9739816313695184, 1.1726520310341542, 0.48948940756684944, -0.03395913441973975, -0.561953551086437, 0.2512791967001651, -0.20212637448306967, -0.07073607707998, -0.10411440897833431, -0.4168502301485826, -0.30247434536320317, 0.27421481748930643, 1.539925199494037, -0.10277806110202843, 1.4222579022507906, 1.1213035039343977, 1.950273664490119, 1.0938206333157896, -0.040326969712628905, -0.04555057922825689, -0.3136641779588766, -1.9378111902346566, -1.5005518425135804, -1.5868548730668885, 0.7909192068928523, -0.03088987129621219, -0.5967021874283113, 1.0127923183341379, 0.24567628052698848, -0.5720792523864024, -0.2364400004278212, 0.8608175433539634, 0.4940420376947298, 0.402728386687932, 0.150682843331604, -0.005416227541693823, -0.003652550648366386, -0.4012869032177169, -0.25530981767542565, 0.6862357647105312, 1.341555547347087, 0.8767682017876037, 0.5446915443582113, 0.0650351929799533, -0.2587694279588781, 1.9857101172823088, 0.8246848912267748, 0.9940085908374188, -0.382601107811386, -2.3243881232200247, -0.24144638482351446, 0.5803634396227483, -0.1836568688417267, 0.8551999877495322, 0.0373449577138066, 0.2363900669934473, -0.5322655452461497, -2.117030689448187, -0.509354593581175, 0.8463052442248604, 0.7044242547373732, 0.3957541724634915, -0.03931088713912087, 0.14471939233153697, -0.4590855196320155, -0.11289933744301664, -0.3104846986014086, 1.0931221957975905, 0.941741627031625, 1.3525071869242966, -0.15988602304817745, -0.22683057008808138, -0.20349999529456878, 0.5724069700553606, -0.5180535223464242, -1.3501110710342505, -2.5985998053332127, -1.7369217663239773, -2.2557532299302214, 0.8213276089651055, 0.6457344143094378, 0.4308596653404602, -1.7910986381859195, -0.5470720227942056, -0.36147740158765257, -0.02725773376291809, -1.1291862791749672, -0.03000846284785304, -0.12105442952085377, 0.5044150344277817, -0.09181991636553434, 0.31637987019799196, 0.11369466160703406, -0.29622727818758215, -0.9863747153868038, 0.5458780208047673, 0.06775854592602747, 0.9532352863324989, -0.1509043567208567, -0.02709938736657775, 1.6673254502497148, 1.069229118579984, 0.780133853710488, -0.6410324265461469, -1.5902829448603921, -0.9337769298913772, 0.038641293857369904, 0.7051379782007224, -1.3245715139230507, -0.825438752788481, -0.3694310663827859, -0.45178227966104023, -0.5132294222076516, -0.8522611517638526, -0.9852944125885613, -0.2931594084007544, 0.24924244592393385, 0.4683024731184202, -0.21978572739891997, 0.24666825941700704, -0.4446395251931389, -0.0811740787809491, -0.9136445121251755, -0.4897174682906487, -0.6947167987392059, 0.01294959699389758, 0.43111951840027635, 0.278055511161641, 1.4476243133597944, 1.0939073183841805, -0.07789392018875316, -0.4627855643950278, -1.4766142486569698, -0.2143266198830229, -0.2929794270147686, -0.7498220244970311, -0.5426926512309271, -1.0784160612084432, -0.315627792487594, -0.23020778822967172, -0.555102360613659, -0.7223051932423519, -0.7523050560037805, -0.6062496879769084, 0.14388085762114527, 0.33360333434948386, -0.03407458016630483, -0.5012251994511592, -0.09216426382642096, 0.24526215244890756, 0.412939286597955, -0.17192926971560493, -0.1750454300063762, 0.6896714843024757, 0.9040271826535682, 0.7982571548021272, -0.07443119198083098, -1.0438309245391317, -1.4019288397608112, 0.5883820968259914, -0.9363541022478776, 1.3959735399966045, -2.2667130016304853, -1.1577121368977994, -0.985663401931805, 0.02745373217526659, -0.7557214787712236, 0.34664977093386284, -0.5177631113507178, -0.26631508856556296, -0.6384062175056354, 0.3626670946968806, -0.08963540474444293, 0.12203925756090615, -0.17264762208886586, -0.0697185444925755, -0.10405396231879072, -0.02073973509630591, -0.32166670779013734, 0.47810649294702284, -0.013307908917801623, 0.3306228791857301, 0.1875831973758168, 0.6460559263352573, -1.5035270450950604, -1.764774412478354, -2.042525301865063, -2.191606845950848, -0.5242563049825439, -1.257602162390371, -1.368910590924884, -1.021945287405668, -0.2921600145781161, -0.23653644587081446, -0.3207868128744472, -0.36368979524392936, -0.5927200577865761, -1.1286445351401468, -0.5409582397930542, 0.03180099884620066, -0.21759477812681008, 0.019023294041862898, -0.0072338420289259605, 0.04639889006224378, -0.09293753181502408, -0.4812257286285373, -0.3361429718161894, -0.09792120271013183, 0.17682763709401944, -0.06593047554005874, 0.5096645353484819, -0.4409380652417251, -0.33703143494412674, -0.38713394294436815, -1.1763749141084094, -1.3962075100467082, -1.0989092760350934, -0.7530047567906807, -0.6413199186742693, 0.6015580949384186, -1.951508487401971, -0.2966251267897721, -0.8204364183794166, -0.8305836157619246, -0.364937977761474, -0.572817845492687, 0.12738777435688825, 0.1412205089729637, -0.7205435096790558, -0.19041205772604952, 0.13694438840408032, 0.10403261202316454, -0.08921745844497647, -0.16668610374033965, -0.10038632230579242, -0.5236438640580059, -0.18162279273316004, 0.28238381870810064, -0.14848839721630605, 0.7223482273315454, 0.22122372975846527, 0.47087458126553705, 1.0140153751675847, -0.8860813614421934, 0.3044034248135287, 0.3502762671032723, -2.0374634560539153, -0.9694518732090754, -0.8953679188498818, -0.8800048051149411, -1.6615793307767575, -0.927746219501973, -0.05427705089749065, 0.28183036489874774, 0.8798292219706215, 0.4523764612935038, -0.07721467352750135, -0.44585324888005834, 0.028414116287439114, -0.2356822412042335, 0.13259627737215965, 0.11028802961760543, -0.6057265359691489, -1.05721952959553, -0.9857950312412, -0.587470126702944, -0.818837461131347, 0.5089496033743839, 0.35568454889715373, 0.21328628291129775, -0.9157331396913858, 0.2734746484893902, 1.5551842680332024, -0.21528914030983584, -1.3469643827448234, 0.41523628700792126, 0.504142656487654, -0.611164465223986, -0.7057369402581293, 0.406180111139986, 0.34043177572783007, 0.4243260405252418, 0.9943747080271352, 0.28041508635892926, -0.1112676705847527, -0.2819580327392629, -0.13143474696575483, -0.08098536203661211, 0.184245834976908, 0.16582255553340552, -0.3609804324078773, -0.7974848127725621, -0.5065219764654495, -1.3638408891300855, -1.761640185579481, -0.8183380671771329, -0.7468549372403536, -2.07217439359054, -2.3961529936130055, 0.25314786837152153, -0.06945112759001057, -1.8020887943414134, 0.5560121309962393, -0.08639746781936043, 0.729706526725068, -0.07023847914336669, 0.06200780341290226, 1.2753902028169979, 0.5734182971459597, 0.7928879138113246, 0.4756625421828103, 0.08188382503416458, -0.22734271289444, 0.000910223736683202, -0.18383056103364084, 0.026261592553905873, 0.04950569896898337, 0.16445103700174493, -0.4042137260900381, -0.1882018313269747, -0.05365931992216819, -0.9135020972932434, -1.2438318875479408, -0.169162313129575, -0.5756969384530853, -0.14884157678717147, -0.7507839637195237, -0.816544098873103, -0.8167531607247293, -1.3506519053083383, -0.6191680549156862, -0.41541189167974124, -0.23850347868712307, -0.12411868166755997, 0.10875098175832715, 1.2296124726400721, 0.6782739211435352, 0.12902237828861854, 0.5627725763592956, -0.35272361182268314, -0.011303435365286918, 0.14087566007541527, -0.06662719398271387, -0.12660350002016363, 0.19548994143773052, -0.07029878552926394, -0.020990999433796845, -0.07333422186374554, -0.10902432641272185, 0.43049178562239454, 0.9997423674234814, 0.8731859786991022, 0.8748136468960939, 0.5575870279487916, 0.17905716207832345, 0.9694971503938762, 0.42333354623724584, 1.3754015926216194, 0.6710948359794479, 0.855197397022316, 0.791327029636096, 0.502021179907232, 0.38690942543510054, 0.3810955958334019, -0.003583724309334599, 0.25886700249542777, -0.10222681465854719, -0.1282097136886901, 0.11171575046749041, -0.0995509853679438, -0.340784382956208, -0.11749184855132308, -0.10887950624699472, 0.12682242527783402, 0.07376527831649816, 0.22005334553673564, -0.1584640136231332, 0.02152426834055808, -0.0346986583617706, -0.14308357543891612, -0.14233466268928796, -0.05593740392141238, -0.09469027095673264, -0.32071978966213527, -0.30441980420163794, 0.18179795697056125, -0.10599475330962956, 0.3335871910202951, 0.0977308636204032, 0.19759404771247413, 0.04309510691867819, -0.071043147173176, 0.15467897422305826, -0.015449572744510379, -0.18513690613376174, -0.33379733092610964, -0.19509961277476004, 0.13303294848580086, 0.022969931926939684], [-0.08848311173424692, 0.0582895864056463, -0.08008525736942129, 0.16826694861027228, 0.4317099944125295, 0.41080397271842123, 0.003388544532086543, -0.4807704274835654, -0.11104312350820929, -0.13024245880678426, -0.102627265716416, 0.05144928412752521, 0.2628349756454715, -0.012117802634242933, -0.02308824117749496, -0.25473034815071516, 0.24586762048389582, 0.005961268714979178, -0.2375400912634201, -0.1982079699593649, -0.2582288294238681, 0.09299629264998396, 0.19100743022440908, -0.020275436700174284, 0.009584507618912694, 0.1630987490608547, -0.04646789338361041, 0.003958353324388019, 0.11948302355811824, 0.11866098792889171, 0.28904377401928544, 0.2919727390387562, -0.03035910095121862, -0.08801477595456167, -0.11196587918656943, -0.1991589064316811, -0.3906373063436684, 0.2365602990449597, -0.0578385462735374, 0.11155883115175927, 0.08589854303271614, 0.4205348845066448, -0.0016455112337540724, -0.06234116158983659, 0.11555985776954653, -0.09145603229475241, -0.14874893338626952, 0.13717738024334164, 0.07838738909083905, -0.024943979220223143, 0.09814985948013984, -0.18709571185828353, -0.20869854345365182, -0.14288176952109544, -0.183100187326914, 0.3734904559919731, -0.1200059330708753, 0.23296884147870087, 0.025303492769874793, 0.0038546750002731614, -0.1442429476741708, 0.15299440973815367, 0.06600653563323484, -0.012176893810087379, 0.22598616517207146, 0.09273208741775482, 0.03310961818973104, 0.4365602467243899, 0.14655760998783696, 0.5030612357443466, 0.6701485574387221, 0.14554982918873885, 0.14275911159566199, 0.07845117348549661, 0.20216573796710877, -0.13109311618722091, 0.22310835165120002, -0.3537343901844223, 0.15745611072723306, 0.1317810617974291, 0.09198931375513916, -0.20610277135979982, -0.009767289639022946, 0.08325203081799, 0.04295493038954248, 0.20708287022951222, -0.12622051847935045, -0.2855782726779722, 0.12999149446587122, 0.18381863384181218, -0.015234160010345965, 0.2320972077747463, 0.16005931483141722, 0.22219645805171925, 0.576286013366635, -0.4990128314288731, -0.5196464121208257, 0.6196040088420424, 1.0412222468297705, 1.7661885345363244, 0.7997405210696166, 0.2924158661378541, 0.06597214502234938, 0.0693008828089491, -0.3555452776322756, -1.3141797174379122, -0.9230841979391251, 0.14025477263661718, -0.26784071945401017, -0.14624426753285544, -0.11723383276656499, -0.06346898498786002, -0.06292491580905342, -0.34873261801556377, 0.0030108060325892395, -0.16023066740340638, 0.3414661971405307, -0.1216528233475821, 0.4585559102915566, 0.31422728046554554, 0.08488665109855681, 0.6493461174111462, 1.3963105000925131, -0.08830272767067533, 0.2507543997792352, 0.37647019186824626, 0.8528611724881262, 0.3313210194970133, 0.5430409275693727, 0.6078103864499155, 0.23061332236758755, -0.04826018647306946, -0.4104315223676345, -1.0405109763099563, -1.106392470328852, -0.7153081283258909, -0.502268201435142, -0.6951683666544165, -0.2195512494645739, -0.2774321656601457, 0.05079079735470724, -0.13333721630756581, -0.18552801864128912, 0.13805051418899947, 0.09370620940213292, -0.15425001552017265, -0.19343387387314062, -0.8655997887416139, -0.42919926702939587, 0.20074777325931348, -1.626816770691244, -0.734366378784624, 0.34853415311829555, -0.6639233225928748, -0.8189985955818512, -1.0845590804808058, -0.23947311338193034, -0.384204831170329, -0.08164870055058247, -0.13758837171603044, -0.527193565168622, -0.740029622344812, -1.615217575815252, -2.8121131054211057, -1.4604933602822492, -0.9142441833267617, 0.20922478719509022, -0.18343595846828184, -0.09016464650142858, -0.5732505461102064, -0.12416879891861253, -0.5447460312085753, -0.09560600346542238, 0.5147208224552705, 0.5174958944279292, -0.5139401677722055, -1.1233220494725449, -1.484245606331779, -0.44427981622541424, -1.3419283243983715, -0.20431086700534296, -0.32986909932370806, -0.6083242166926898, 0.5976411331721466, 0.6014328443134758, 1.999059111362064, 1.5644101004082323, -0.038166746982838465, 0.5704325920252121, 0.40137436677965804, -0.6917668770017011, -1.4693210759366175, -1.452154610888085, -0.6224671337846368, -0.2931422593438637, 0.08241838714729077, -0.19372591684964255, -0.12324028570513614, -0.17770942719744812, -0.5732761614613777, 0.41050348733498954, 0.6944237085652162, 0.5082851738368909, -0.44503697419826677, -0.9141406842187704, 0.2951315389785694, -0.6821026369876864, -0.9009403368880188, 0.06542471347127944, -1.2206457993733018, -2.2267689331596383, 1.3406321612212049, 0.133853116862285, -0.1585925637132146, 0.7897924735901382, 0.1442142361306944, -0.07570180781321452, 0.3600376814319864, -0.19891199981001648, -1.9160840843974667, -0.3136343304081259, -0.2922981738980018, 0.06056386796135424, 0.2866574021228997, -0.112019784313805, -0.19194186250321404, -0.29341590918440513, -0.7093708590824565, 0.001913383182025593, 0.4628528729035002, 0.8659264161717105, 1.2157602529492273, 0.860866795255543, 1.3728837598976462, -0.5527395936117275, -0.5756056768839265, 0.10977805518730452, -1.3231665853317363, -3.347546680854113, -0.276302154756081, 1.2615110890902512, 1.2943524427423614, 1.3821842396264992, 0.8814835235597452, -0.9332485832696946, 0.43577431419334567, 0.5298316777229319, -1.9701392684523735, -0.6455866238422636, -1.2238813451387454, -0.0025292553212449952, 0.3431888923603697, -0.3269520277156785, -0.49133348194807414, -0.35715182860593403, -0.7177503771139011, -0.2227629283982614, -0.1516312212086885, 0.3553108893330823, 0.5677559659481342, -0.09612814857226251, 0.2085669241499563, 0.1598665943982701, 0.06544072654727376, 0.3604120530037084, -3.819808283501395, -5.857436942938085, -0.5979410773945357, 3.5006536426627086, 2.8046297080364373, 1.834608655538824, 0.8560227165237726, 1.7426711730396993, 1.1613736827709815, -0.21572897383646691, -0.8045175126367171, -1.7909501644453532, -2.012419285999506, -0.16415140634044137, -0.2441010647510276, -0.13465771381598424, -0.3586806039682023, -0.1953495439087169, -0.2573924924091296, 0.14947570066313998, -0.8026589380676179, 0.4804475695834988, -0.49767447616943383, -0.8594639353655613, -1.3642119460882405, -0.5814638679347806, -0.5722767669741969, -3.5478487228526205, -4.260939096284977, -2.2227811257638455, 2.7501635269672104, 5.080281762665708, 3.128233958074451, 2.0901563896869515, 2.661697377144451, 2.0649336753642498, 1.3499587838835834, 0.4937731848853649, 0.12276850461208588, -2.242844930797446, -2.336682270183372, -0.8048436424441392, 0.018663480198821254, 0.3441139907452698, -0.12802841673661, 0.22055651296248613, 0.0046740928044631605, 0.14143389252626812, 0.08701008798734837, -0.2621724032168232, -0.20349309753602188, -1.055434565137926, -1.253108303857828, -1.5317626670786642, -1.7885165848477649, -2.242258049850181, -0.448134211032973, 1.903138157832017, 2.728548398512931, 2.1916289238090125, 1.576760048356753, 0.48866434839200806, 1.122957671615396, 2.133326250781576, 1.7367745233903928, 2.5928877153396854, 0.5968457592468964, -1.0373667325114193, -1.58785577850814, -0.06864646113864198, -0.011688778585690918, -0.17300054915410568, -0.13071377671370582, -0.7734191760564738, -0.2625899374853815, -0.021624538217041685, 1.0613438740260908, -0.07703806588927925, -0.322175386458776, -1.0606005146438888, -0.5649536514795819, -2.5770748442870257, -2.650653724853803, -2.190891252631048, -0.39466486182764593, 1.4493678392802667, 1.859119798230736, 1.6159016676637001, 2.4527698049307745, 1.4157522869401016, 0.7976466903832135, 0.8775580506530737, 2.2485574882506643, 3.2173979273776365, 1.6463009350627023, 1.3945788187769048, -0.07234329149149575, 0.06872686140750799, -0.014753668591401224, 0.10073217235083234, -0.46051206820416285, -0.12091275838937421, -0.2906496519538432, 0.12374894691820572, -0.3737643903280112, -0.38757887944981806, -0.654901412565343, 0.6567473886600363, -0.7059788679900133, 0.05817653007581905, -1.6962339295826747, -0.5628680972976815, 1.2776257641532647, 1.8842609747111543, 2.3810831873084974, 1.2410813560403782, 1.0137360262027018, 1.5715824907007767, 0.15798816257012155, 0.9814822978039028, -0.0011839222808520088, 0.3215223837566727, 0.15813777906696255, 0.07985838984376137, 0.20407026086526125, 0.18024439232485423, -0.3017882147240192, 0.02808871740849585, -0.18900762815769825, -0.20532991285363897, -0.36141415513018155, -0.2680220643464881, -0.3089538578789983, -1.3769516760150489, -1.0362914550745792, -0.5656828485127029, -1.3673161350256784, -0.9366919649113896, 0.7343026442779204, 0.41352245328282, 2.4442949677678043, 1.7132280061549219, 0.6745165616102357, 1.1722553029821252, 1.597527309649105, 1.1451574277938714, 0.5634725798655148, 0.25050921851784513, 0.32000865170379506, -1.8931486956099766, -2.279186782766535, -1.5725574377527087, 0.022286661922319668, -0.06093026659841548, -0.3275368070970264, 0.012986485474627642, -0.0628207113711132, 0.2262939465551076, -0.18945423024633737, -0.020295634618799293, -0.0875031558824342, -0.8623379688600127, -0.9945965233959866, -0.8247063323067226, -1.5894958116735125, -1.0981632226509688, 0.9250860255496363, 0.3012815005598864, 1.9246411946678523, 2.8494758669892035, 0.7567276983889973, 2.0379458670097246, 1.6370247387901786, -0.08966350135644005, -0.056912796069923464, -0.3355794613209075, 0.03162193646619366, -1.4983297151253179, -1.996998984806903, -1.7627436556052332, 0.20816766472107878, 0.21144653542137887, -0.033918012668857335, 0.17292308178761004, -0.21471637483395495, 0.011355475960641825, -0.43958165473200855, 0.16839613617755583, 0.19221137170348837, 0.3864996114960893, -0.027051493325487824, 0.020203448601232896, 0.39550779317781654, -1.872038062488144, 0.9278422136273232, 1.1693326069462882, 2.608664419367818, 2.4461926754758148, 1.143432810072252, 2.216421952530087, 0.968855381070682, -1.933901434879698, -0.6684247198295674, -0.9664717632777403, -1.4145583335120744, -0.9138992382164554, -1.6353945380170052, -1.427550516570003, 0.3698147927749088, 0.15770573928977125, 0.2095874101274075, -0.09568717918744946, 0.03255583435751328, 0.016119568047016298, -0.34078072476259974, -0.4011159543985657, -0.1848121813407543, -0.46779610914278696, 0.8095802615355508, 0.920424313906448, 0.6669110528745218, 0.26480292481710055, 0.6138712314248703, 0.7995368621340208, 2.5544664058219593, 0.25290778495993305, -1.8795481293981255, 1.3230249156655376, -1.743784206217997, -2.7784667886074152, -0.4655240223381615, -1.221952373534923, -0.7513990050885775, -0.7331953485386964, -0.5251350199102048, -0.3128583421309289, 0.4345955158611607, 0.13467326978231203, 0.24772221720411502, 0.2304384680177307, -0.34513330344502846, 0.17522195209450442, -0.10632778806770507, 0.13887040443376827, -0.39441797819949553, -0.7616647635339582, 0.009158804775910174, 0.5457906330961723, -0.2553861044520375, -0.06993620144250856, 1.7858451257639052, 2.34733600307074, 2.932825767394296, 0.7922459102816329, -0.47823576476173124, -1.0522869412453377, -0.9024585205448297, -0.43863156616231086, -0.2788026370883701, -0.8920826411459484, -1.0705506139789291, 0.6411325834201487, 0.6208077078370621, 0.8057756214378524, 0.35218088605434644, 0.1351288476645879, 0.26243508715553077, 0.000452129375704451, 0.2127212596160052, -0.1978657431507275, 0.31822527738206424, -0.0005380348071323233, 0.3710371014811327, 0.14921310154525666, 0.5723223594488066, 0.08102391770771451, 1.624589412996551, 0.9567264748551985, 1.778488842355277, 1.803993973600704, 0.9343039872648149, -1.8502650066080135, -1.6760485612926137, -0.47866868942002794, 0.09732034250151865, 1.0238287612119703, -0.8047697587789004, -1.0591679426971725, -0.8597925486333757, 0.3835205799610622, 0.9715520309708349, 0.6408969429444055, 0.4870565412399759, -0.13843648653622379, 0.12251671385072975, -0.04141390665750102, -0.2691814502421133, -0.08432884269917998, 1.0719705757339997, 0.3696242936954488, 0.3684019344466467, 0.7746630838706706, 1.225746455011425, 0.035022206446340166, 0.8566995800344218, 0.9886228647955411, -1.8230148085931732, -0.9889119004550094, -0.9803999574643661, -1.7813206796713157, -1.3970227902172268, -0.9201784957138355, 0.4451279807854118, 0.43873104880916947, 0.9088644737404146, 0.9651568499583134, 1.4017382075977989, -0.05791023254648436, 0.21215494517421613, 0.4569280943052675, 0.0007625819579547971, 0.09802319046036553, -0.12755370825868428, -0.3871766153108652, 0.12642554763100242, -0.1266470206566699, 0.05129332564139951, -0.3606125033417132, 0.01278254789217276, 0.07019060147319259, 0.13852771911158837, -1.2716509585491163, -0.3468422677181896, 0.1623899110564179, -0.3286939465956776, -0.5788856017893557, 0.6565798320686588, -0.7167803146119703, -0.4703856590927626, -1.6451770271520254, -0.679920988951354, -0.378150452556414, -0.07886640697138493, 0.634340409646091, 0.13161819861689616, 0.22527598443001634, 0.5333276726241247, 0.12404255075696378, -0.09342679651806983, -0.2598493731770586, -0.15932064743821298, -0.24542757523987657, 0.3207449444524051, 0.10699396125940876, -0.2664325748141781, -0.16926561014049568, -0.24325251715370347, 1.456619102344184, 0.5671002080495167, 1.3256283965314306, 0.445291382627841, 1.1904511731686513, -0.6316381484701015, -0.8619496193292338, -0.08734714651685875, 0.8382977350515919, 0.12541085040594066, -1.2873775875162432, -1.6495709749225564, -1.4724383131693652, -0.13278892204116485, -0.1763310299780699, -0.47971724333550975, 0.0932000238476077, -0.22106898604027306, 0.16000956744641814, 0.3916090908110104, -0.19123744056691294, -0.08524472334300814, 0.05751165947667345, 0.0986495985148061, 0.3661572382020975, 0.02530151131295122, -0.4811168828213335, -0.7867264449788184, 0.10412369589983306, 0.9638638344330115, 1.1950968854201263, 1.0112967535318131, -0.23472951358366953, 0.031187513698564172, 1.261531552453659, 0.11734583364686232, -1.1477077923660348, -0.736463975753399, -0.678416045539554, -1.8521957394813635, 0.5837090538022506, -1.08998535207846, -1.5496580162589382, -1.1092824668737193, -0.06102796485268181, -0.0718147651469776, -0.1237223185426035, 0.1503503326048287, -0.23005009441635485, -0.14351612965028188, -0.17730929802887996, -0.35823977250795724, -0.1449981881164299, -0.09328805135320396, 0.380407427322079, 0.5724014546972704, 0.07394747998748366, 0.11532506974975444, 0.11508385515827942, -1.2006769471726224, -0.6890079512018629, -0.25934053709128024, -0.8226446120731514, -0.23112147694340693, 0.3960067214608415, 0.545445790729815, 0.5031492843684281, -1.6102619094470092, -0.8695178301951131, -1.4987279913361387, -0.9133557866886712, -0.5417992767206194, -0.7185918905661601, 0.378498953647547, -0.4125260427102767, 0.2828808574704391, -0.17373662457805905, 0.052246886430601956, -0.11345363906097412, 0.11344102390531592, 0.015071712462491648, 0.17223119579067228, 0.07812732735404501, 0.1890931359407993, 0.25547290804115935, 0.3143585388077086, 0.08703387200341246, -0.547053960474234, -0.029501449806979288, 0.545252929308108, -0.8081315423619753, -1.1404588377725642, 0.16996070436214686, -0.14218101281762724, -0.8910188699431868, -1.5111963420058405, -1.5303791412715553, -1.1678029279303788, -0.49096457576874103, -0.3171024078891018, -0.2015773658548512, -0.3418143978589468, -0.281003855926411, 0.25347749219628773, -0.4221309625414215, -0.06294179905281447, -0.33494304711062134, 0.02064538396294772, -0.02199467915659978, 0.07056548008963061, 0.20794284036181115, -0.09009058341789199, 0.14167758575524225, 0.2055201943789293, 0.03148780999033087, -0.34590739822802075, -0.6820858272880023, -0.8256942148279997, -1.3398320386375278, -0.48860480065315537, 0.09870755966748011, -1.1871830559279268, -0.4861541690927463, -0.12116570242350569, -0.0400353473032504, -0.22394027867592015, -0.13897293492746865, 0.053889412581863125, -0.17206546125915254, -0.17854497707573494, 0.25621989529863554, -0.07694009800932974, 0.06209203322326946, 0.16930600021080117, -0.11041475295307321, -0.0760147535230436, -0.1677656894486626, -0.32439090537513726, -0.29651723846906, -0.3012906741989691, -0.005461579721674112, 0.1714559845280918, 0.3908536265790254, -0.38510213632507023, 0.09358658964353632, 0.09661715698469295, -0.39455977283904115, -0.47202467245731317, 0.1358299045191267, -0.2980075928596083, -0.24221453103921894, 0.360461964011798, 0.20778652668145095, -0.09333979755725363, -0.01999004385769289, 0.21874167591840538, -0.04462693825623249, -0.14913875607680346, 0.042355991512127246, -0.1613451798389091, -0.041255630105906764, -0.3521014777988577], [-0.02192266050588785, -0.04532820825753155, 0.043092465485611575, -0.23527856931560276, 0.31402146685256727, 0.15038375402578988, -0.2332416356773556, -0.18252174140287264, 0.09063822172852572, 0.00605776646024431, 0.012120074010641474, 0.42929522612042614, -0.16146244452701633, 0.2664177421324055, -0.027847199604379917, 0.19744013469178442, -0.19540847349972698, -0.03560594940442256, -0.021963752856655982, 0.1145502451096985, 0.07044154421124993, -0.2610757609556384, 0.07175549438322035, -0.2728135103873344, -0.3160842896504163, 0.30498295327659086, -0.11772202746340332, -0.3908344037854608, 0.12046702817832555, -0.07138644486635537, -0.18977978048753175, -0.2186524488683934, -0.22175063868593456, -0.025629007563190725, -0.028200332029850308, 0.14282520222332942, -0.17090536298069617, 0.15007249460400524, -0.47843415805087003, -0.17872988679777843, -0.09253469787124413, 0.09432495747498945, -0.3277283277942389, -0.1404747073977806, -0.12807705829088387, -0.07142010246700183, 0.3568274915396576, 0.08051645619695953, 0.576116230362776, 0.012731830146311351, -0.3730558927955221, 0.07668467521651215, -0.1448917368854336, -0.1572892770713183, 0.13115092356636288, -0.1279702010269044, 0.06159715391725092, -0.15945094252160494, -0.3067558477078123, -0.06630743339930703, -0.019281070699126435, 0.01354004312230179, 0.19157156544156723, 0.24170664818940085, -0.16464947122610146, -0.21681065332498753, -0.5698133285073008, -0.04563449042809732, -0.18543599975973515, -0.20438164651355897, -0.7552909191569304, -0.1595016146330878, 0.2741454234540067, 0.05185493119688138, -0.6420702060586392, -1.077120485569338, -0.24978855219686852, -0.5271805431472802, -0.28913980693552077, 0.030518735495588697, 0.17301990482380922, 0.009447831720240243, 0.2668334917059626, -0.12762730999696642, -0.22719135807717228, 0.010762340068731162, -0.09072723483544316, -0.4166518457853246, -0.0024888189164368694, -0.07416352273115165, -0.2103309863725519, -0.1812910133434143, 1.2194489911761857, 0.6357099522291404, 0.2049545591561463, 0.6847784331968451, 0.8427263007802791, 0.03537178365174888, -0.4260141339883287, -0.6227487683097245, -0.6712759538113542, -0.5807138031413372, -0.17350563395634758, 0.36202129723401355, -0.2315043871651134, -1.097375598727076, -0.36415285857075186, -0.6789085670333381, -0.2572999834408202, 0.0509399250905934, -0.03744117262874446, -0.17134967444653465, 0.06756706738908957, 0.31145419840140465, -0.1838454595581441, 0.1604222058390235, 0.19908081694319302, 0.2637781940409993, 0.38812359180862205, 0.22667428516377475, 0.16321352729234231, -0.9435911481778344, 0.5056833664679039, 1.268267947972805, 0.07101550935486134, -0.49894525777584187, -1.080340241802597, -0.7302000664536827, 1.0863792246894113, -0.9126656648586122, 0.17688644126463876, 0.8394314994103502, 0.39165534195721363, -0.6924130247489158, 0.053103834562315155, -0.3005984583715698, -0.16249144543220184, -0.003023466055975873, 0.11099659051479066, 0.44948656751022104, -0.4307574938871929, -0.27889522521356136, -0.1409365312268092, -0.011419505375372372, 0.061384418963832676, -0.0450082035562808, -0.2179001416154741, -0.21144591485925876, 0.4883857441411138, -0.32495060759758143, -0.18151884740651222, -0.4305161870860478, -0.5356197581632609, 0.668372037466757, -0.26403140694301197, -0.4369412670690243, -0.11844598687417333, -2.1460180095243397, -0.4245316034620488, -1.4223635139451372, -1.0085827308813213, -0.6929437937994714, -0.5117826967787613, -0.28895356818903006, -0.412272541419239, 0.3001205925095848, -0.05371630109982061, 0.07768252956985436, -0.2157907495869098, 0.21458719760230802, 0.43777775264099766, 0.26110190840463765, 0.4521594234646324, -0.13737741131998596, 0.6194410031028533, 0.053931153392500195, -0.16273223843227794, 1.057183443302817, 1.4921518958565223, -0.5020390968326962, -0.9843919883890349, -0.19954552726474067, -0.15269443105251448, -1.357059115353311, 1.2732003517809363, -0.7700286040490462, -0.30619672411347004, -0.23180628246365736, 1.1385771506016913, -0.032583406518117954, 0.1107359450009651, 0.31893309691665667, -0.710556844778986, -0.3489293549475421, -0.1206569018189327, 0.11289294870418287, -0.05023910221727406, 0.037338650825443145, 0.1486107200817622, 0.4632766359862228, 0.37894677016808764, 0.036062901217031, 0.5369600333954084, 0.15938884926596472, 0.5068768871500079, 0.2740679666608706, 0.2991467511007051, 0.5071067671405355, -0.6605177871430162, 1.7754813566037786, 0.5528030158447078, -0.05205162556332892, 0.26070505058819393, 0.8668325995847743, -0.789343470295015, 1.1456988598278761, 0.4337401676809435, 0.11090307783976754, 0.8739907007420492, -0.21226793243064881, -1.3635710298407138, -0.8767714938830251, -0.1760878782940797, -0.19937106542721186, -0.24639103233382775, -0.027229534300775918, -0.0032782616157815006, 0.3250203698705267, 1.7526720367578912, 1.226754743555478, -0.6119357280358128, 1.2196405327879278, 2.135702183679342, -0.39674876728033054, 1.0286244331137175, 1.5089057943077153, 0.6269597805500866, -0.05652487420968609, 1.1129851132368327, -0.7581073231549683, -0.12205268230351339, 0.6961949424160042, 0.043594945371599116, -0.3708724457170064, -0.5791354550489031, -0.03735496121665648, 0.5984624013535944, -0.5478928080532266, -2.0964389319558094, -1.157620702807919, -0.192722042675402, 0.14382359106435996, -0.08089413607186886, 0.051131783154410186, 0.12525709979324032, 0.6622845797483955, 1.8234658418797938, 1.0411102872106206, 0.001888626062534609, 1.4121063302537935, 1.012841677086009, 0.45678845529849116, 1.6489218781284314, 0.5186753034177267, 0.950138351303395, -0.5529951283036293, 0.4593427193188666, 0.6884417922164506, 0.6575632094936195, -0.5900351784750688, -0.1469287435422707, 0.12188302069888819, -0.31991123149349066, -0.9786011325989453, 0.4463219150989377, -0.9805695592081265, -1.1628540743500264, -0.9514617403290676, 0.17372859584134923, -0.009364618222120391, 0.1742799252220037, -0.14136292226855424, 0.3272778271189963, 0.016012945368885773, 0.8647438173331493, 0.9606887929360047, 1.1048254676653253, 1.4796371256000589, 2.998158080703778, 1.1546167612728129, 1.402983490735253, -0.025246019933535598, 0.3427985127561778, -0.26295113749236526, -0.9879462278977609, -0.7602951207324675, 1.4267700797423033, 0.6779666176246242, 1.5882669041383284, 1.4450702313094639, -0.10169943014089315, -0.2627953859583706, -0.7473603034808373, -1.4735350587770792, -0.020278348004838787, -0.039153815249782745, 0.4936212785561956, 0.15315420985055145, 0.25647464289992283, -0.023773198564442287, 0.10296942468274924, 0.0633250869643311, -0.3816144312454311, -0.47215841865263863, 0.8591039540646437, 0.6926893338643951, 0.5654840808378017, -1.8211049585646548, -1.8086761058483425, -1.779966898542284, -2.239684702825509, -3.5147303464952766, -3.094338756847324, -0.7945542935587185, -1.8331455361598077, -0.205290971290999, -1.143598335357763, -0.06325385300459935, -0.12753314946780772, -0.4347999808792737, -1.1919751332638016, -0.5729700551347807, -0.6240510841150068, 0.4261695535262766, 0.1283029106405926, -0.0872048564334513, 0.12629485967552684, -0.10255161649345057, -0.10358281019893181, -1.0070895270979494, -1.0810983997249384, -2.1168974992448244, -1.745187346867009, -2.6723239023507226, -3.5948489813638775, -5.638729635858046, -7.2609262001956045, -6.788051593620247, -7.249470252179438, -3.198250456244375, -2.5645797542138506, 0.2265385447617978, -0.04023702823746801, -0.23793962919069858, -0.4521524612428117, -0.444906263596424, -0.6142000197379802, -0.8618658286383128, -1.1773866859218083, -1.976190034574228, -0.3786931470388656, 1.6560970052052362, 0.2273189777127192, 0.29292696943154994, 0.022800386759790604, 0.26842503605662543, -0.2700547513844167, -1.9491493500341774, -2.6949278500911666, -4.961212268779448, -5.656764051623904, -8.517593773558653, -9.470796717862399, -7.053333400076662, -5.305399802508982, -0.0617417263190518, -0.3514876342640683, 1.9029188950949587, -0.22067974457522146, -0.13823145276117796, -1.1439662158361903, 1.1323343952755822, -0.3887136505594151, -0.6771251997810289, -1.5134748975043881, 1.857515924573018, -1.3317398870049018, -0.7549882225509432, 1.17630040132178, 1.6118018249962012, 0.7664742454966107, 0.226534103573124, 0.13950808966806075, 0.12570473311690264, 0.012698221645705833, -2.9017458164478427, -3.0168161785000693, -5.289996963870925, -6.559697615976533, -6.896326648709817, -3.516807002066312, 0.8283482199911231, 1.2122569776663241, 1.2356446568916466, -0.20743537759495723, 1.1606992890557843, -0.4046759721807327, -0.6130001432630634, -0.0996496428943705, 0.3503921783254166, 0.8603539511815175, 0.206938138735074, -0.9123129780362685, 0.6745273837963622, -0.40852026938370634, -0.4810014682098769, 1.2814781188814386, 1.5568238851175813, 1.5591259885670323, -0.13379456338245224, 0.03915257490940128, -0.43935078534072636, -0.005176666250995629, -2.396361843859302, -3.054264450705432, -2.359591936396051, -0.21325268516843038, 1.1166281147579502, 1.3543648346186896, 0.7973520042554363, 1.0000967217937327, 0.9477710073211653, -0.7595153090306634, 0.44456217101855433, 1.2194521883225296, 1.2789532367414371, 0.017128545906784316, -1.2089964052293174, -0.23201071393739547, -1.2225907066764599, 0.8159059257705454, 0.6522357308397481, 0.18471763916773662, 0.12359161972939785, 1.2318589640152102, 1.2046816976911983, 1.2722413628202298, -0.19512914977582432, 0.04713016751908672, -0.011388214450845625, 0.023092312460348187, -0.5836950712549742, -1.8884951196869237, -1.5266852255153018, 1.3735267787952032, 1.7007048620748102, 0.8018193011558908, -0.25471777742050195, -0.7628806269844672, -0.3732132151912893, 0.4318840253404613, 1.0897344842251255, -0.3152943164003219, 1.0504981449134856, 0.28993152864213806, 1.6169229766689037, 1.1929240170780366, 1.6538527511871808, 0.2427829905661953, 2.275323293684228, 1.766780170077214, 1.6309294751110803, 1.9696027765733766, 2.239007655540017, 1.2879490875700224, -0.014562726549210973, -0.3421434961361246, -0.28717251121027326, 0.7911761467686388, -0.26694757599167357, -0.3262226194041333, -0.6913457099149318, -0.6044796132202962, 0.16076464858397294, -0.5824718494601056, 0.5386222946012349, -0.20104950054251786, 0.08209211249762019, 0.1959178544366671, 0.6617109282254676, 0.27828206746435663, 0.612310672239623, -0.09968073358652549, -0.12081163104525822, -0.790702759100175, -0.20636720692774166, -0.5392692014177064, 0.28554043707274046, 0.7861910852291598, -0.8202051517137169, -0.10202736272364114, 1.1896664788788336, 0.08392242982083686, -0.22841412123762603, -0.20267163785132, -0.011277104543927921, 0.3619033150008153, -0.27178263397096375, 0.25024621929656665, 1.5930123570289607, -0.7607849079196436, 0.5969553474593633, -0.954968943738238, 0.15234293357904652, 0.9305744566711743, -0.9409132727586161, 1.3813038840440783, 0.6978830165420199, 1.338186990728069, 0.05604652117392498, -0.2802598968374066, 1.4301859715784104, 0.7400728742778254, 0.7025583823478719, -1.422221786999411, -0.6879906464588548, 0.18780228855425424, -0.6495492041037398, 1.003431287211455, 0.8839153744742697, 0.20787098519219274, 0.27479879732048407, -0.35060608604803883, 0.07942648842382617, -0.3924859684972582, 0.15277819093442754, 2.300938272430832, 0.7207075854681252, -0.5368726465281679, 1.0910296538141717, 0.08273742398382224, 0.3908467077773595, 0.00955478556066187, -0.3238448511454973, -0.32587414410648347, -0.43950832376602056, 1.2892137265651722, 0.20455775535778042, 0.5714469140807791, 0.39327598550344955, -1.8986624874016589, -0.449503592737082, 0.15339260925910506, 0.8069820443925678, -1.2005149015244594, -0.18492170104282513, 0.3953289531249546, 0.5500961776261517, 0.4333921374652824, -0.13087813175145738, 0.09973140444003464, 0.06041527967678941, 0.374985629429382, 0.42326829602638066, 2.770303412743658, 1.1855456697110967, -0.008586672370604167, -0.4414753759769227, 0.12607163508748964, 0.2310957652089723, -0.12909844477972318, 1.8288167634615393, 1.0621904612358044, 0.5434031700262741, -0.6102937636833926, -0.3369887643359883, -0.5692519432590958, -1.400138903036142, -1.4595726555252082, -0.553823401674357, 0.12633216949522305, -1.0561428098007055, -0.7119411135985135, -0.37058585385308035, 0.5264567715713709, 0.7190480522870751, -0.027825991031657924, 0.2689127602104408, 0.28936244340926826, 0.26444176159975563, 0.5184732368290137, 1.565159231209789, 1.510959272683598, 1.0664641975935703, 0.9693288652850054, -0.5796492762117126, 0.5787756681397327, -0.7181476403491047, -0.5907457615062287, -1.2412041064154704, -0.3027576501438589, -0.7668995340782595, -0.009055907357245183, 0.5971169610439647, -0.2722921382115622, -0.43667892072573944, 0.8645286503281717, 0.6711008586834458, -0.9594901214998419, 0.02214091147284512, 0.25228916041758376, -0.23582782899336827, 0.5121297222105511, 1.1166251266902536, 0.1459647515035204, 0.3992019966678635, -0.027308901979640244, -0.2191297135791698, 0.5270060692777265, 1.0184423683133856, 1.1770664225275775, 1.1893569627270497, -0.5480616123182259, -0.7220318562560156, 0.686298260831345, 0.10175768926086712, 0.3873185433851736, 0.9994537048117816, -0.39771519983951215, -0.22902855413839396, 0.6669256751394882, -0.3735219292363169, 0.4519598037430857, 0.7776138359802501, 1.0761444648127496, 0.7272336552116336, 0.05866385896822994, 0.48567976241202016, -0.7318955828228707, 0.010914967799946306, 0.44867410537760016, 0.6294652352069443, 0.4906074240788217, 0.0645338467925613, 0.15905079929101243, -0.06379164356290967, -0.1427231941620234, 0.34519995365949774, 0.725092653250623, 1.9465593267561156, 2.216361784993163, 1.0622839001183677, -0.011958217381728033, -0.4797261734485787, -0.8646919118560191, 0.765746920516008, -1.065939517419546, 1.2702157375652001, 0.7186778243695785, -0.31958090990059784, -0.22219121699381625, -1.0705205049951163, 0.4870141655514176, 0.6856759077325347, -0.9859248311339893, -0.08177266181448822, -1.6138875977099183, -0.5003809847478016, 0.339526886407068, 0.6101266843524308, 0.0312062029564761, -0.2425474653573017, -0.13723760983585442, -0.21346463169366872, 0.023701190771763577, 0.32990384525833605, 0.46943658382109926, 0.9184628517096497, 0.3915245506749438, -0.07575483001536022, 0.3763670147947549, 0.6545529199436259, -0.34395581632162475, 0.17308628804386803, -0.5287182963893635, -1.1418055161203389, 0.1446663900695336, 0.3626129698756393, -1.1943829961008017, 0.8825027056501505, -1.3721544784601503, -0.6283535627977646, -0.46978426966447373, -0.9303961533515349, -0.7298533436527415, -0.3798260871759227, 0.3797309188038068, 0.675007992797086, -0.052419167209337265, 0.2662393184071252, -0.40635949046810654, -0.20678351876268303, 0.32953126153345375, -0.026553107918255617, 0.39142081470974727, -0.0024402355366395286, 0.0012735450824009655, 1.1324375346261748, 1.2604855593331552, 0.7262871116486672, 0.7188087266062122, 0.5563553371063613, 1.4749581426293572, 0.38064283664080295, 0.2921832664197631, 0.6082996060081114, -0.20501268424599078, -0.1633189390762804, -2.37633562329217, -1.5138924615993352, -1.025393308511514, -1.3459922629566095, -0.8411764211960724, -0.011071506444227146, -0.11060599734973231, -0.14890848366395312, 0.2654684659265939, -0.05970051459069002, -0.03397814340197099, -0.2932532172714086, -0.05728580545835924, 0.12342447742599504, -0.20895874940925901, -1.241504062260454, -0.81324060003181, 0.21721563127562685, -0.010565527600956652, -0.48767646768464856, -0.37742707356272515, 0.5744281898485057, 0.19384765355410125, -0.8318353204937999, 0.40593432195041074, 0.6847919690197664, 1.0798231457587373, 0.3754380738465903, -0.012152837811333255, -0.31015685434688056, -0.8138369018824372, -0.9283442034080829, -0.49420683659131737, 0.3699682597892475, 0.4924336400755804, 0.28053905860007516, -0.005575372680861821, 0.3365295772508959, -0.49934658549210137, -0.18004723760983482, 0.29139832875396054, -0.12129150222985238, -0.06728638380348492, -0.10330598359859625, 0.017978152186826333, -0.05681461280012322, 0.10319395760884174, 0.2806994012346201, -0.04324753151312504, -0.004379372954357121, 0.2503584581480456, 0.1352877243693588, 0.2387334656236523, 0.07930495605842336, -0.08631458584907488, 0.020836553421317516, 0.5346564486326407, 0.1676025394954642, 0.08565066188601084, 0.20506099802386857, -0.19927660317814236, 0.08624792528836786, -0.036497948826525344, -0.13365865458996487, 0.2821229522669102, 0.2683948853410111], [0.07660875898546607, -0.09730508025076848, -0.2815205666429617, -0.1729235552920672, 0.1293589564619579, 0.08937199910564238, -0.08072248853565087, -0.0636540681617383, -0.11668245700763782, 0.16943813261325916, -0.044780157870691735, 0.12810851142473642, -0.10022438912870198, 0.15743839502193602, 0.24870001019688323, -0.15045831641280902, 0.22616638942844194, -0.12821529325225883, -0.3308053167503678, 0.18509711606144535, 0.00863630189730048, 0.326085864676888, 0.10211120272514078, -0.15124164885083685, 0.1347132869986259, 0.14612132660009533, 0.16890991620654616, 0.5336511427056273, 0.0065813495712689265, 0.06704629080263816, 0.00813054560282167, 0.18730276014450384, 0.020252345468757878, -0.07109038887868904, 0.1392827292434651, 0.014487839739190609, 0.4442656568281567, 0.11856530941598112, -0.1525784595299294, 0.36122170905634393, 0.1496999148342097, 0.1820820470549825, -0.14897865748101036, 0.26196569984638834, 0.4274556476072162, -0.0943228841667795, 0.2419401404862411, 0.08356124440811102, 0.08168165729163467, -0.11058093635345409, -0.036748372249927455, 0.26941699771000416, -0.19185178450969415, 0.031575056073342225, 0.25872111487871574, 0.144993535674316, -0.045107668705965186, -0.3199731535288454, -0.15379799043216752, 0.23040734281077077, -0.03236514423566514, 0.07773137555865062, -0.3049817373995183, -0.05402478891003986, 0.3525824549305056, 0.27484474543385207, -0.10959423580062792, -0.21181374695168784, -0.19868213323866382, -0.27776441056618384, -0.25816248501874306, -0.3816843090512112, -0.014469602925776197, -0.46500450941371063, -0.2874502211208693, -0.23319742326721982, 0.2222893135257828, 0.23310758813995514, -0.09947397068604458, -0.09251404327095322, 0.18635634667126863, -0.1078310258174486, 0.03459810375543248, 0.1524847239243698, 0.2912865524842892, -0.27312042190301244, -0.19084554557065833, -0.04855175982036973, -0.39620134480302754, 0.14436810341871822, -0.2535024728420826, 0.033304039970454065, -0.20670840429490395, -0.384399127235412, 0.4300856548432552, 0.5880241935216757, -0.09410187688561625, -0.6242432738251731, -0.47936694001704516, -0.38590880416276385, 0.17964052210749026, 0.3114917227350821, -0.28435313672681206, -0.23533358469902868, 0.1423263614822125, 0.13278798638072908, 0.06721448350207843, -0.10432394712197904, -0.09399608467549313, 0.20389151146011678, 0.01792762266019748, -0.22417841249830278, -0.21804320151078188, 0.2768635266498926, -2.3014169046796707e-06, 0.2940390616911366, -0.194788960506894, -0.14022949905883336, 0.2672400702623343, 0.7016180294474323, -0.10325874346431574, -0.17089323306781778, -0.14137417108498954, 0.7645559085853402, -0.8040844119740728, -1.8014389993854, 0.1599450461758979, 1.4716819612545715, 1.2400509564709745, -0.3259156581657006, 0.2770266257850107, -0.8786403622066, -0.5902816080114909, -0.37497520976038884, 0.3840164839409667, 0.3605161644954671, 0.3158606161714271, 0.3139863122819605, 0.03183286673522972, -0.3848922730150935, 0.008064588925980623, -0.23733578959556767, 0.1790516529869135, 0.008677550971351004, -0.2898670447658076, 0.24977920728478778, -0.5629219522981995, -1.0773257192233032, -0.4256051380423014, 0.17738536564856772, 0.5383828822735692, 0.2848691099331312, -0.37087182816573583, 1.143725239135058, 0.7122161616556136, -0.6180971328339046, 1.2248088418868117, 0.7934120365382363, 1.1241717488407594, 0.3939375294619682, 0.028108148106179693, -0.035519638180212504, -0.2957625113594515, -0.4632664386801813, -0.262616881619015, 0.13192384033333523, 0.29513930241283315, -0.019245671098871243, 0.0014427050076210033, 0.06106942910544776, -0.08614069861889709, -0.09042796401549634, -0.3517042304596098, -0.7119921128317227, -1.2534380957428384, -0.9010646059057739, 0.2476081893471826, 1.8017586249214974, 2.157790247440161, 1.5175129156956546, 1.3637812705624281, 2.3137809487492387, 0.36659103460487524, 0.9000881720084514, 1.2540534893583934, 3.25614115791196, 2.0252680798483813, 1.8033033986950369, -0.33092907216898854, -0.3681426741251457, -1.0193814737596638, -1.3876271007374639, 0.30317760795528204, 0.6004007958925142, 0.335458751302672, -0.3073908119006674, 0.08483344991393937, 0.01641125555712962, -0.38688167832309256, 0.13440432095889082, -0.4884429115410921, -1.181676053434738, -0.6038059369615273, 0.17422322046551628, 2.4084716480683435, 1.4142050232709789, 0.9188198693812744, 1.4702777276493821, 2.444759476645513, 1.8842175596696629, 0.2809240754048365, 2.18526405153511, 1.5216849334518718, 0.9136361634439891, 3.701634572633661, 2.0909682273432515, 0.4336929319696986, 0.48136026528460385, -0.27004482536672353, -0.2861809725207925, 0.22717390242214763, 0.3423094288511937, 0.3136933074810424, -0.14283150237754774, 0.09250871148609058, 0.3634567170511092, -0.1793773494558072, -0.11566918356909828, 0.0066709483261455805, 0.06744537157632133, 0.46948679827855055, 0.849668962115575, 2.773923773054357, 1.7843267317826796, 1.84363716081204, 2.08678675450167, 1.8718696099210144, 1.7121897876438283, 2.956257617695687, 0.9742938696281614, 2.613626060044434, 1.098423215553727, 1.623538148847581, 0.40627582349624397, -0.13174262170975237, 0.4157245076586431, 1.2541944950488184, 0.9439488636728737, 1.5247081406290897, 0.1130874744121376, 0.6357165783722937, 0.6097710513945153, -0.09252097597407676, 0.025358480076896485, -0.2547766112772338, 0.5725656991183149, 0.19527354616364992, 0.1684407788489742, 1.526786284658139, 1.4375938735914966, 1.6871567819670439, 3.503210706577838, 1.3412633149321673, 2.1331772142012313, 2.134136539483415, 1.7025668296830445, 2.838456130840901, 0.8052345651407761, -0.7854645163443208, 0.48222963549209086, 0.9677345426230259, 0.20803312467860535, 0.1960747326190428, 0.6438967751409278, 0.16384188358887686, 0.8686639099729139, 1.040594001970169, 0.5336367605484302, 0.4459108114692008, -0.06215961240047101, -0.10943565049042793, 0.16340627032256685, -0.09828472073605352, 0.27048955619629805, 0.21635887660013525, 0.4560474414444407, 1.7170889592591645, 0.6645387348383354, 2.2215481697215997, 1.387858179827631, -0.00011726843152124027, 2.27410618182028, 0.7114791020267665, 0.5392525836306239, 1.219678976694662, -2.1364455846539165, -0.40310447198667937, -1.9794582790986495, 0.08027220016635973, 0.37665833794166564, 0.09645785978079102, 1.4413894127123021, 0.4213342495918389, 0.30789728521800375, -0.5383917779649295, 0.10465513324411835, 0.4357014992328642, 0.37769551454889905, -0.12931812139196083, 0.08505610449991134, 0.11617904002252602, -0.06652706834594689, 0.1598375079141214, 0.7587161545038702, 1.8059201908620797, 0.27118619772143204, 0.006872280321185102, -0.9690015452375617, -0.3206044561349427, 0.3843966258235372, 1.0583373705657997, 0.30392032470543495, -1.480235628361842, -1.0121698352228492, 0.24184020086328017, 1.0208331067807206, 1.594250895075773, -0.1631200625038406, 1.1625996323133516, 1.024722690002633, 1.2847811161399767, 2.2672526689069694, 0.9961500004692605, 1.1995034265070637, 0.7226811532735035, -0.12189673258423822, 0.055179108872230036, -0.09962685624079637, 0.47692056622668233, 0.037182766226083686, 0.7905159296198444, 1.2338206885261094, -0.76088741000166, -1.6807646795792548, -0.6954329769065258, 0.12470966289527007, -1.5778935349445087, -0.7806940395386114, -5.13084840013839, -2.7139002979167963, 0.5196316830024039, -0.22644810693710865, -0.25864554945095525, 1.738574087434271, 1.057340035636363, 1.3219534798890291, 0.6260348760118569, -0.38596570825844856, -0.5895108251456055, 1.3184896950203129, 1.272672046508206, 1.1678439208366265, 0.7354697679171233, -0.022552894099186666, 0.1601250263065356, 0.21772127217855528, 0.3185540773955134, -0.0740056226865679, 0.9595445637496928, -0.6830813742815014, -2.4053605682060852, 0.25747076099380656, -0.6262155946968287, -2.463458940626304, -1.8738793082706386, -1.108839676324069, -3.063758296499828, -1.3724874241085747, 1.0797341446647521, -2.192771351849515, -0.5346521086147649, 0.34796354569850335, 0.6384725521340294, 0.03689791998424317, 0.062154014931247566, -1.0511495488859093, -0.44812154074891924, -0.0012603614421893416, 0.1386132209542127, 0.6124412278333451, -0.053847639878051023, 0.13210267531139044, 0.04070599757183316, 0.015337378561463845, 0.17493915914645042, -0.4326406405966953, -0.47122168924902125, -2.239862470519984, -1.629047291447936, 0.6609428382508129, -3.007059433583981, -2.720530090829177, -0.17497396566313772, -0.13558377121811038, -1.8246117123446326, -0.9987643671851894, -0.6265674366811489, 0.924947624539886, -0.6794394712461844, -1.4021009999996938, -0.927928503822606, -0.1635155884054986, 0.31679871686535577, -0.5174573306346552, -0.9842242663358453, -1.4353419205068907, -0.7702055883217439, -0.06463373781369319, -0.3602837165892225, 0.10278667392739567, 0.15733684463760458, -0.1194400369198193, -0.21208774891936344, -0.6278465998466797, -0.7626154687001859, -0.9332938193558818, -0.34579538006648375, -0.5838849660040755, 0.6234947708968225, -0.8866504946986837, 0.936193720884339, 0.6263425937427897, -1.3710790765808092, -1.1823357911623904, -0.5138269168142615, 0.9527684258806336, -0.40979175339821977, -0.5425235326671094, 0.3497247446005042, -0.7317735900017529, 0.22902001988675022, -0.34555613247911304, -1.2165764376741275, -1.1519964612526112, -0.8667991626742668, -0.7921281626050433, -0.2626638603300505, 0.013935279628454528, -0.07534180525877433, -0.16197423808024364, -0.39504796940620907, -0.6759172358175257, 0.008965297876459121, -0.17818319104735694, 0.19851133780718552, -0.7312093676625908, -0.3692522613990136, -0.24138972026609118, 0.6472032508373802, -1.0717105804237703, -0.8098137812050571, -2.776384766522129, -0.6322968101835776, -1.4421989582029688, 0.20121950104463784, 0.2508095237396501, -1.157735951896514, -1.9619600527526118, -1.2543353206930998, -1.085969438386635, -0.46439871948863537, -0.810165926738047, -0.7243779516154326, -0.2960714478922332, -0.4303504314795097, -0.19894090501775416, -0.20402187402393515, -0.728231751205297, -0.03733394781273841, -0.2622329464774421, -0.9113232055828748, -0.7668463954276544, -1.0236452283766906, -0.8023817334923532, -0.25605006073483605, 0.13792826628846666, 0.29269401607234824, -1.2244637654027652, -0.7172701368872196, -0.8907030610353023, -0.09278983970428496, -1.3585198387407902, -1.42641397501322, -0.7431716290988161, -0.970357110963442, -1.5525509096802408, -1.673196037219216, -1.7523741414865133, -1.0371204480219702, -0.8752769861142041, -0.6635964369344571, -0.21464611013797782, -0.05281471317008106, 0.026508911877461603, 0.21071627850036231, -0.32465608422471315, -0.0406748158280976, -0.34086855743440975, -1.1371134932076565, -1.0905859538354021, -0.8609869377520936, -0.8781742746664184, -0.1666867672850569, 0.25875593991399276, 0.8948427835660142, 0.6180397050796338, -2.6711130671019094, -1.5298875102024683, -1.3505620056798988, -1.1478278871981131, -2.5398167872239577, 0.6503255375343198, 0.06829740055281787, 0.8346422705874865, -0.7368007361706962, -1.2424614737494764, -0.2381980549118858, -0.5071151985508083, -0.8728355701107865, -0.01880801652923403, -0.14599765525275496, 0.05598129491356396, 0.092642864251611, 0.24090994899123022, 0.05065818867253421, -0.48268754705153954, -1.2392568994204936, -0.7671859197945152, -0.37966422637488956, 0.06876278481839376, 0.701588522671603, -0.12046103102172298, -0.5525153839698601, -0.816737392284302, -0.7216905740698538, -2.694095936285538, -2.0737345185746294, -2.1711446806671533, -1.175891521967396, 0.08287357255936656, -1.1721134174368726, 1.5692966000498532, -0.34802385992288837, -0.4582620774486499, 0.8130297161375494, 0.4411580470971496, -0.35173727903266966, 0.25865899255462443, 0.15124166593673793, -0.0865995313430441, -0.2159712145433515, -0.1043034519735913, 0.06972298995326559, 0.05499020058364751, -0.8130736408644162, 0.5348014576432965, 0.46631598649997197, 0.5544764602599381, -0.3726665847415601, -0.8685591785568292, -1.7424011517129387, -1.6939890364268635, 0.26982568712253524, 0.6943874997794078, -1.2292024565783857, 0.8453792998143635, -1.4435095512071754, -0.9596628347316841, -0.8614053807708743, 1.4120238187589904, 0.008556594114666926, 0.06806720673987834, 1.764444747723135, 0.5526593520012858, 0.13944047945616095, -0.043733512190319616, -0.05854195768409925, 0.07067319632379272, 0.04383000215372767, 0.02337460903496152, 0.18988894269518178, 0.12238240005986468, 0.9552611806107237, 1.3642994375957405, 1.544276842972123, 0.7662483970964148, -0.13305486749579806, 1.516859075243061, -1.0545008708227732, -0.06605657054315513, 0.3562106059430338, 0.4145215867031188, 0.6211077446645978, 0.38257203474417406, -0.42601111466677716, -0.8259941812718485, -1.25329872355189, -0.9100588786013223, 0.9314311479549185, 1.6098302157117759, 2.010275963742679, 0.9531857317935485, 0.3714060847935894, 0.21206647526355213, -0.20388822363494277, 0.19070739024117914, 0.08857019099283239, -0.1183945816590285, -0.11897532482215546, 0.07373096637818825, 0.19533477144367908, 0.6530729484603869, 1.033626837601563, 1.0725752754354325, 1.5821781180136378, 1.1615197363062932, 1.6047975282074218, 1.1576463938876493, 0.8551366571052083, 0.8382713584282306, 1.8284883553523312, -1.032741330268488, -0.1464032679857966, -0.5788155323591155, -0.24553971929062812, -1.241271219210048, 0.4385277541711803, 0.27768421677473315, 1.6076926841708987, 1.2072298011844789, 0.166888351774688, -0.027624061788076908, -0.21894066241265137, -0.08648059829292008, 0.07741634623877935, 0.023897048308005726, 0.12729917272953378, -0.0024728454209356843, -0.3068850755840491, -0.49495672267394625, -0.025421586304344438, 0.7180136114882602, 0.7817124227542466, -0.7746506730056867, 0.15684463978245392, -0.7719897586791858, -0.34053790629298064, 2.0288950054011963, 1.2506495140644205, 0.7807928360809792, 2.206460028199008, 1.433376103394863, 1.2148425844898028, 0.9474406422407446, 0.263310265500108, 0.16370679653152587, 1.5174971857692041, 0.8635623467608411, 0.6488692409654485, 0.06949958666449704, -0.5420174303928098, -0.3139141975866369, 0.20939360781616762, 0.08050549918332434, 0.25271974584739554, 0.3493133250725014, 0.15356756463491994, -0.12643645165911688, -0.06736480388731009, 0.8820035745246081, 0.8640340908944218, 0.5774701267058535, 0.13598888117358998, 0.013279125058200733, 0.9658174939425348, 0.6457815258378914, 0.754008734973999, 1.273529261165614, 1.679329918563264, 1.8631094847676606, 1.720219358678596, 0.614780339734322, 0.9201028125744837, -0.6481844625290801, 0.33690168480385896, 1.0387427935519742, 0.5106017008908011, 0.01021049720953896, 0.32014101946601486, 0.10329330909364694, -0.004073881041587344, -0.10010076034166468, 0.015497583456534967, -0.08501583886964204, 0.03599141751551875, 0.44913632066002174, 1.007703150994881, 1.7898730760295907, 2.507857711184727, 2.1754433785070626, 2.0940938685088417, 1.249479414845505, 1.6240981671091892, 2.486918473095409, 4.210048323454323, 2.8577586859236073, 2.300264608268684, 1.5970265543009103, 1.3887479298378707, 2.0110957581436635, 0.916629299629522, 0.10134575571167462, -0.0058435669467536535, 0.12635587538815193, 0.029562251622367624, 0.40409547139992186, 0.10485975229633705, -0.09306095307974704, 0.1921660107853154, -0.1952893271621618, -0.33666379890781023, -0.2912479670182818, 0.061311416772448855, 0.0558107676420812, 0.11648301578310943, 0.9233453526859066, 1.2897479847733773, 1.6200884080533582, 2.246380257436792, 1.7267128231137452, 2.7684925681568857, 2.082642791281718, 3.4313941270634496, 2.4513014100442367, 2.5067460107821193, 1.4605885108097647, 1.5039037882175563, 0.742305970284374, 0.9275495308502159, 0.26915863989864786, 0.20955625356845992, 0.12232103773635881, 0.2929330445831548, -0.039827460235661555, -0.2323355830136628, -0.1699667769430961, -0.12866636749606825, -0.41486205652128855, 0.2836901806860503, -0.1420317545827316, -0.13329803399687995, -0.0187783087023057, 0.2860272943927423, 0.42724471794320895, 0.014660990148154323, -0.13977322118056432, 0.38146776734205884, 0.084972400389318, 0.19974525931462375, 0.28433647808442797, 0.5203468955564379, 0.05198406375351991, 0.15930083240572349, 0.011583207775605495, 0.421677036114991, 0.25396132209535116, 0.16201145037699521, -0.30404514439010144, -0.04894475223050218, 0.007872102680183563, -0.22728262522831502, 0.20003833782356115, -0.1877297225162175, -0.056010332111036246], [-0.16193406757012174, 0.04663118604989985, -0.21558922041276624, 0.018587609873768424, 0.0876821979883632, 0.0228166789195924, -0.20759112465841403, 0.277212805558629, -0.09604188350507707, 0.08328867088737299, 0.44465226663887075, -0.3899553906897416, 0.2945623007297474, -0.17179430639765578, -0.2877358934246544, 0.17285011515885748, 0.029464575653426896, 0.1235383713969143, -0.36340127974460185, -0.0929880300930756, -0.302077297225551, 0.2595095842504244, -0.3199813197977321, -0.13322146441651322, 0.2761711368723628, 0.28153787072885395, -0.12717996948162286, 0.05482891184072926, -0.17450524171008497, -0.171833678141199, 0.03245966031612469, -0.03336882595781547, -0.22118098349584897, 0.44685495740686104, 0.02528906601177226, 0.2919326396707454, 0.19109868447188158, -0.23229802057379365, -0.152388762294177, -0.028205246010485425, -0.1260302260672464, 0.1554132648012598, 0.11878613825599273, 0.24378612930397345, -0.21313940259856146, 0.015279627082518099, -0.1955519317742842, -0.008339611636447409, -0.5239331502158202, 0.004384739917829712, 0.030066852727305866, 0.05421418918677077, 0.04516718100560994, -0.22086217971255057, -0.06726128075448493, 0.3537432697557743, -0.3011016665133503, 0.05254585446434795, 0.30254769818499194, -0.19719502831590927, -0.21226213806848118, 0.33442810282240415, -0.0077442590977686325, -0.06546724110115675, 0.1782848236457244, -0.18294458984661124, -0.10634987880964672, 0.34528384146830027, 0.5291480957899511, 0.43127402461341663, 0.8953880767011884, 0.5801670678779751, 0.7265913436283105, 0.5616698603317255, -0.2600117543064855, -0.4121660016596058, -0.2753285092583165, -0.3633874088153492, -0.09980444543021642, -0.1252338308056264, 0.18439952487201988, 0.35071789346701165, 0.10775160755098256, 0.18977906146097295, 0.3475371401756045, -0.04391884609845863, 0.33991027089170867, 0.20434526923680638, 0.2727328244055785, -0.06824591323954923, -0.1731197591193431, 0.00227764940007823, -0.08906564079639208, -0.3115948191579237, -0.45402511657601613, -0.30067992647783637, 0.18053290957389867, -0.06322514543575729, 0.02039950662276025, 0.4875451793276953, 0.8185335054711949, 1.541369292218305, 0.3297122269384452, 1.096042030908854, 0.21034746146222444, -1.1979880966134764, -0.3759785119932866, 0.13054963811740805, -0.06959016951090821, 0.2527486759680778, -0.1412857269571893, 0.20496839800734698, -0.07422114832877855, -0.1340341083089679, -0.061181015593683906, 0.005003853737501588, 0.19439459048832156, 0.39186448296336784, 0.0942664588690963, -0.22680067446424979, 0.17493284385851632, -0.18981042229868658, 0.1669957018030616, -0.8371342580579331, -0.4258997251810806, 0.6246475378245602, 0.6629679960359546, 0.6290299701062997, 1.8902017084092158, 0.14579146960241396, 0.8334692002912326, 0.726251664193386, -0.0842362194899858, -0.6121797818828885, 0.4514368464240173, -0.6692887892686697, -0.04660669872040308, 0.052037224838558285, -0.10690175594651777, -0.03101149521327754, -0.1345912504357619, -0.2615270391708801, 0.08766624666782623, 0.09391707751761753, -0.033826877644800135, -0.10908365788370772, -0.23128755619444843, -0.1581816638456647, -0.20095725941561174, -0.009712250101632534, -0.26274030738827664, -0.1116489775570569, -0.08470442619677274, -0.3010267903169829, -0.13869725514684747, 0.46337295662653805, 0.6862295036288888, 1.2509227309451083, 1.4278799170390477, 0.8326619637736596, 0.45855597853818875, -0.43682560192078607, -0.18826426838019625, 0.06103878307789033, -0.23657924625530172, -0.45944423131998274, -0.2120117608515786, -0.1727782698105401, 0.09265257086120263, 0.06601259524318631, -0.17195143495617266, -0.04847299516314462, 0.03783630151724252, 0.049877505202853355, 0.22088553570734448, -0.12056580333345751, -0.8290485107334657, 0.4877328628364912, 0.7092972584357393, 0.3122447798961694, -0.29552662431598103, 0.9227463107304986, -0.329161266722578, -0.49163885642964694, 0.5537247992926018, 2.1330363900230633, 1.7319482410279656, -1.5086327322474034, 0.7655902935352844, -0.3206316031310644, -0.47161856974737915, 0.14505153839930415, -0.8272728953446454, -0.1934944970646093, -0.17261640615067111, 0.0042235133779714345, -0.041242348911183335, 0.014425635546450979, 0.18297392816884622, 0.018235803173607294, 0.4102827603182774, 1.2691110306166964, 0.9412259945306285, 0.41965193292592745, 0.4253994372075195, 2.0510881783067796, 0.2664655375647092, -0.7683440646725587, -1.2246513439230957, -1.7987496331024504, 0.9445914827826459, 0.5443657486200913, 0.4573700060460849, 0.3220316816687258, 0.8880629518046192, 2.3654658020513777, 0.6054616236764802, 0.2764407112680532, -0.7202561203882714, -1.7427043817058108, -1.636277969086097, -0.48994708998488135, -0.04963780972204907, 0.3061610845714414, 0.0006608840112292122, 0.11509329040644783, 0.0122429461868551, 0.03388482813693735, 0.20839439732862464, 0.23590638573491574, 1.2881301541117849, 1.8300220914690228, 0.8253261538508156, 0.48827779881562494, 0.08486585950740394, 0.03203170200443151, -0.30187845472494407, -1.0095046229862294, -0.6844339186183528, -0.31418359044620503, 0.5702486862214787, 1.24340333014634, 0.7234029983272022, -0.004116374233482182, -0.08196639233182154, 0.06404176429453523, 0.20262603831946768, -3.244308987563659, -2.7238363601179687, -1.04726864342818, -0.16545375762888348, 0.04236460297756833, -0.046708831774413685, 0.04630340550564686, 0.3525814609051696, -0.059633716097114126, 0.2692666226677679, -1.3239785402361937, -0.9671454531246504, -0.7329207266290357, -1.2982609627714603, -2.6548325294513977, -3.361003566666524, -3.592227382692886, -2.146969455890288, -3.6627174584777986, -3.831405296881419, 0.9269868863083653, 3.348666024706848, 1.5474810009865696, 1.7151364118918895, -0.8528106946900221, -0.7046372383056597, 0.7174264594244059, -0.6653939760135992, -2.721252085227975, -1.5610336050698894, -0.2686732774571437, -0.09628152411962561, -0.2950122914640104, -0.23754849864449323, -0.3440123676550475, 0.2616962386587083, -0.3978102381796863, -0.07595262251276398, -1.6050146084100443, -2.247737378128787, -3.778635485893824, -4.2655892909216515, -6.261183363525848, -5.066861876256086, -3.9462158846478688, -1.636943387541317, -2.0093070929999497, -2.588114453744638, 0.35037368985085504, 0.501315661583266, 2.749678252270548, 2.032027960770002, 1.406655865485325, 0.36404226515025156, 0.24297296437216484, -1.0838998760619971, -1.4411136005318306, -1.3358430372975973, -0.3314380251736799, -0.06175024037517592, -0.19681815702589012, 0.25101090820679806, -0.1479275811817873, -0.11606446495863232, -0.3768819530349924, -0.6167600509505055, -1.7454317452405559, -2.2939713409825493, -3.2167169270085445, -4.510732436575879, -2.5726247703807776, 0.24710790161698254, -0.6830240932304592, -1.1651954392704855, 0.2869527258482405, 0.8547513104157112, 2.326843085296253, 0.15301735684038575, 1.2100850048452616, 1.0027419074800636, 1.761240969089555, 0.2964681846974109, -1.4526284111072205, -0.9438181188295208, -0.6660644156481098, -0.33564398170805015, 0.2332936761844291, -0.16408619531254337, -0.1464994788544863, -0.17681011281596798, -0.37385642217049864, -0.5690214499746848, -1.1280624820514686, -1.136254216212679, -1.681718573007414, -2.047499963692098, -1.3077206560780688, 0.07895100522324544, 0.8225084646310885, 1.255947462616515, -0.3968168073263201, 1.7242034015451158, 1.244945211044151, 1.211987095567684, -0.4645651147821741, 1.6521367536742575, 0.1963888663138738, 0.8435689229295326, -1.0487857456073801, -0.9548819033125474, -1.16980916483762, -1.0849768472448489, -0.6370769750414141, -0.08913951719580288, 0.2272463336583937, 0.4479047871163508, 0.22423607875818977, -0.21294306382406078, 0.2430817035321792, -0.38369874077138777, -0.5227299537103134, -0.9259834430060996, -1.6288292532731137, -1.4676916493322782, 0.4532345596601481, 2.4208174393866897, 0.4535865399323211, 0.5269418722967546, -0.17778415324433824, -0.5751808380835948, 0.4361728060241567, 1.1446329703708995, 0.3236367071339658, 0.7614947493042074, 0.2865074122778635, 0.8352395757106255, -1.6072020632563588, -1.6909597427955159, -0.9184420846238512, -1.0678349302003458, -0.5717912618625242, -0.2649345461154262, -0.335483970940286, -0.2467610386327633, 0.0007529607816392478, -0.08862933911373477, -0.08509353548784382, -0.10097301519515339, -0.050386096099263006, -0.465942210898258, -0.37900364051549856, -0.14725675162097923, 1.659570484051288, 1.164652919574669, 0.6425507919825804, -2.2287940167538665, 0.5305844752645932, 1.2188962974104358, -1.261777975591726, 1.597153440492029, 0.592347565622616, -0.5782158264390217, -0.07254644472554862, -0.5992935169653218, -0.5989913299842392, 0.18173538580812396, 1.2257316600973032, -0.3608581912668058, -0.5580198256922848, 0.394584504208635, 0.031838167271164994, 0.22412484967412388, 0.018054178357083988, 0.27706279172201714, 0.12014540863564019, -0.03241663421026845, -0.02511133523992914, 0.9609143205309146, 0.27164189426186464, 0.9357040117108828, 0.8259478004000097, 0.3253112297118839, -0.12762406388220818, -1.1498102604300076, 0.7112689728552072, -1.0750326466005222, 0.08824281853373125, -0.385046112194381, -0.13605098843180233, -0.09997232854191297, -0.4456869127218384, -0.5447961080553048, 0.07532835252478125, 0.9185825964364095, 1.3131232166405338, -0.3786091589031103, -0.16618596243267045, -0.02256726421287571, 0.04969458080583785, -0.06643495166415915, -0.1469236029139265, 0.006194851244218299, 0.05931580282083559, 0.055005284953229386, 0.4578956995002244, 1.0424138805876668, 0.8617926115729864, -0.0751436903881012, 1.1993929158128325, -1.2389197578703428, -0.45409710838577494, -0.8481900509542107, -0.13403595253521172, -0.25265762342964354, -1.1240615104187537, -2.1302281225287873, -1.0420730867531793, -1.1807702031220324, -0.22464999668774577, 0.3204271913179931, 0.41655102364444563, 1.5490775428081598, 0.993193217388092, 0.31661431013471475, -0.02659768937834296, -0.00028287043598895176, 0.049234638527373954, -0.06102601394425153, -0.03299408236019572, 0.15847650336825908, 0.031798747599400615, 0.4725604358816225, 0.7930743029970165, 1.276659598252726, -0.09318055340953466, -0.78360728041196, -0.0314010843507217, -1.397172294115143, -0.017572497362378536, -1.2213989784996988, -0.8183507560041752, -0.6687051123298127, -0.007198092973705339, -0.5304313001943151, 0.1770785330419907, -0.3758961350682788, 0.29701170444479613, 1.0254859860489967, 1.6710677974102686, 0.5213684154530394, -0.2941416331824402, 0.4643049266164843, 0.1977543506426369, -0.5768189307044168, -0.6399002849320251, 0.11153951251157691, -0.17319590595850326, -0.20183476594763727, 0.2028434717378166, 0.778372671433434, 1.0613409916886636, 0.2537737043118135, 0.6717376349374338, -0.8520522853914443, 0.010174082321399724, -0.029786642137047976, 0.49385013840981723, -0.1913903864190097, 0.7270254338786957, -0.2923967845238441, 0.6481261497333018, -0.877140673871482, -1.3752081083450969, -0.2524358904859742, -0.1118164095117701, 0.03414656011534894, 1.2781722554239223, 0.017068220264968854, 0.37361932122195723, 0.4535163874426611, 0.1799882174240019, -0.7552923178526124, -0.25336901034310133, 0.35488582259572365, 0.12783687808804128, -0.25594241214849833, -0.378607892896175, -0.049679255839665565, 1.3367358939573442, 0.45557737006017746, -0.035675229489224136, -0.3448431956809901, -0.3453980300695501, -1.8055131460450007, -0.3693805147486366, -0.5455460699516785, -0.5869629187245308, 0.06520270123539985, -0.311448167042217, -1.6348573451795103, -1.4455637537342034, -0.12145661680656979, -0.44364793436766115, -0.4380500125932571, -0.20202018785585066, -0.18448151465988719, 0.054323102935623466, -0.31041991784509415, -0.30154254031024946, -0.6263270391471275, -0.05451970104332891, 0.20524341680257974, -0.10285770231865694, -0.10016678655797932, 0.18605714164957127, -0.4551742929295281, 0.29894578018000295, -0.08302889239542388, -0.7497610507257244, 0.9786607246015001, 0.7063033888188539, 0.8059474417054278, -0.390385131291859, 0.12296163072029873, 1.0714802167163777, 0.6443693388243947, -0.37193746325715216, 1.6555071408186137, 0.16770692626282974, 0.05979149779408966, 0.26425252895123674, 0.26697200977448776, -1.0665876965875034, -0.40913898212671407, -0.4180284197206906, -0.6483019391894145, -1.0044721462173365, -0.24139034805027088, 0.04440764313669728, 0.023965944501892197, 0.3765851007611733, -0.09973971858362872, -0.280390926859464, -0.014475874696590564, -0.7267768539382947, -0.89963612685351, -0.5715216075547519, 0.1400842631003574, 0.35135296448564846, -0.5088644227580691, -1.0787037794611956, 0.8504486786619482, -1.8299346171282742, -0.2797255674138703, -0.788822531397519, 0.3630893305973104, 0.2979002944367099, -0.7917593782456241, 0.543214267608647, 0.41218843890973705, -0.25940365417453876, -1.261431851738588, -0.616752729376625, -0.906159975185849, -0.8240617248985308, -0.13486860839189435, -0.8724716696839632, 0.15113248278063363, -0.04770772557250989, -0.08013411262122266, 0.06994395312311977, 0.3703501414607503, 0.4080827059500895, -0.9501591719110196, 1.5251750761530876, 1.540310276523983, 0.9482897887267685, -0.47048722409010896, 1.085134774354282, -0.6118034400895963, -1.821756247282335, -1.9590946829015654, -0.7500783627040799, 1.3289073650061418, 0.8374358763139509, -0.8207075008739109, 0.6262445422516913, -1.044047294183769, -0.6483877994786296, -0.9695991960187273, -0.8003670376620309, -0.7030507414754482, -0.07242682516497692, 0.3178215121300216, 0.48391927274987523, -0.05055203963118137, -0.21066234595944852, -0.3306752635542577, -0.026134431481694774, 0.07454675044754426, 0.6673729136780712, 0.29118905405460016, 1.3367155652073588, 0.4623911877751578, 0.49641733187174236, -0.3808585528504424, 0.5252753484948762, -0.04792910421955632, 0.13303842847902372, 1.5706573465561637, -0.6299016498985669, -1.1885168558195298, -0.28231979599045487, -0.08428417114999535, -0.015607730970690027, 1.76125922074423, 2.231993359788845, 0.13874105207250534, -0.46334716335015375, -0.3218647160457513, -0.022613298508172102, 0.1754101303116834, -0.04554569536820831, 0.34827481979201724, -0.15858213456082365, -0.07867497378468795, -0.19700556528301327, 0.24679393840659541, 0.5164903204103907, 1.088036423670141, 0.6043604204824248, 0.9917439348551188, 0.8518078575272264, -0.3221008043724819, -0.37623488797732424, -0.4627357146693255, -0.2092988574928788, -0.8071662760014046, -0.5683031649022167, 0.07390884700937757, 0.11341876985369352, -0.05414054210557621, -0.09636989057910657, 1.2080871298186957, 0.8727368315837316, -0.18480436685135787, -0.7251728380920867, -0.24076152527608377, 0.029830629857572177, -0.3011624085806076, 0.06139218092594247, 0.08454487036497678, -0.059811526531158045, 0.3910810054712236, -0.2813357532126267, -0.12954248340228086, -0.4754831558350598, 0.14127616030867013, 0.08741744053069983, 0.8986266302800134, 0.03264875419453789, 0.8645301967869666, 1.1819869998382821, -0.16183173529799283, -0.9309614432854345, 0.7639131537461509, 0.9698850851932469, -0.7493500652363224, -0.9053621726273434, -0.6441216623924853, 0.6169675063328695, 0.504998776245968, -0.05428870623333572, -0.6052155265224287, -0.9337915649475744, -0.40077273650119016, -0.49529958011123587, 0.2174788128190157, -0.3018826767107894, -0.264322643114414, -0.038400560723763924, 0.0030121060861337317, 0.06738163114491347, 0.21666864044111334, 0.4952232070466137, 0.11760362079593226, 0.18643174564070272, -0.32124584977018494, -0.43567814852976816, 0.18620181278820275, -0.4602593840626568, -1.184904497082321, -1.2535284550633614, -0.3871168782110522, -0.4094389756020701, 0.5406413588633582, 0.19973260306146776, 0.7884033508627546, 0.3494674559005925, 0.24284829649589054, 0.11490268857204233, -0.2927313028280164, -0.5189352956337386, 0.035507280919808204, -0.2517611619109098, -0.40323015367239695, 0.09796518300942272, -0.298211910746082, 0.20055189060656783, -0.03339848776324746, 0.15926258809273058, -0.15548196914888562, 0.006602299950347286, 0.5219375254654377, -0.052738511439433165, 0.36584395267045533, -0.3215349639872415, 0.10269121267671927, -0.16703942232939448, -0.2737813327941628, -0.2523226240937321, 0.12068979445516036, 0.024555590901026072, -0.04685911898122244, -0.5309583790508065, 0.10642015401082905, 0.1770165306887516, 0.02737307485916443, 0.0040454321451856255, 0.45479029467518967, 0.28614717892340674, -0.2935703374227749, -0.1265749983183955, -0.16778709644141374, -0.11191678980082513, 0.12534956950713091, -0.07233522031247783], [0.19615440223974354, -0.05592604277376141, 0.10420337320584878, 0.19844220406747767, -0.2868845715725405, -0.11933585861808442, 0.17070929923754644, -0.14710654579627863, 0.18839425450295127, 0.48460279954519514, 0.16045076388085058, 0.2093701784352567, 0.2634957448411205, 0.09997856355631522, 0.3908106798248159, 0.10918091513956595, -0.09450028424065429, -0.1452588315056766, 0.13223587849485735, -0.28061775928146143, 0.3585255104667361, 0.07543930249849022, -0.27302751925662017, 0.26436858775792405, 0.28118890931281215, 0.15566589059324848, -0.30047519438616377, 0.2826347688986459, -0.049477153900639635, -0.31499703128650286, -0.10799903506956758, 0.12967551347283052, -0.4836036846729115, -0.1577332956288352, -0.22637490903654944, -0.028895356102891623, 0.1937733292798303, -0.09474268929921296, -0.06681753743405554, -0.1595574313523817, -0.1212704214100203, -0.01902372785875141, -0.11084705829364162, 0.07149365330005109, 0.06786673761159921, 0.24111859264479377, 0.26887904477937247, -0.06520754814101778, 0.10724965651412985, -0.14842742223805777, -0.13416419333975477, -0.15438780672039865, 0.03432171447475909, -0.15387740953819404, 0.08258186684386373, -0.25956315129149904, -0.2573421686512811, -0.3805959014146928, -0.2650301208251462, -0.0826112362633828, 0.06538105234028654, 0.19701156971546316, -0.02678572691515418, -0.09054580689543, 0.31979938122004026, -0.22820065435744274, 0.17133165213820992, -0.021139274254973178, -0.29539600034705493, -0.16327883631506568, 0.009335567182939038, -0.049507460108856524, -0.08932047348351549, -0.30258467864700117, -0.41761014244239364, 0.1067993304899808, -0.08465587021989947, -0.18196613357089128, -0.09826911283382782, -0.14726417809253636, -0.3305232143267592, -0.03305093335299516, 